0.0310643516732 0.0310643516732 0.0310643516732 0.0310643516732
-0.0583328526372 -0.0583328526372 -0.0583328526372 -0.0583328526372
-0.0573344302234 -0.0573344302234 -0.0573344302234 -0.0573344302234
0.0247367142437 0.0247367142437 0.0247367142437 0.0247367142437
0.00721716213879 0.00721716213879 0.00721716213879 0.00721716213879
-0.096758000706 -0.096758000706 -0.096758000706 -0.096758000706
0.0486613271299 0.0486613271299 0.0486613271299 0.0486613271299
-0.00145793464528 -0.00145793464528 -0.00145793464528 -0.00145793464528
0.00762781999744 0.00762781999744 0.00762781999744 0.00762781999744
0.0581498280722 0.0581498280722 0.0581498280722 0.0581498280722
0.0643928443942 0.0643928443942 0.0643928443942 0.0643928443942
0.0314901195263 0.0314901195263 0.0314901195263 0.0314901195263
-0.0735785520749 -0.0735785520749 -0.0735785520749 -0.0735785520749
0.0863130701906 0.0863130701906 0.0863130701906 0.0863130701906
0.0706670441767 0.0706670441767 0.0706670441767 0.0706670441767
-0.0664554577956 -0.0664554577956 -0.0664554577956 -0.0664554577956
0.0766032557334 0.0766032557334 0.0766032557334 0.0766032557334
-0.000769170131813 -0.000769170131813 -0.000769170131813 -0.000769170131813
-0.0317063009658 -0.0317063009658 -0.0317063009658 -0.0317063009658
0.0558287955394 0.0558287955394 0.0558287955394 0.0558287955394
-0.0517469413053 -0.0517469413053 -0.0517469413053 -0.0517469413053
0.0483486804634 0.0483486804634 0.0483486804634 0.0483486804634
-0.0360949229028 -0.0360949229028 -0.0360949229028 -0.0360949229028
0.0618866845913 0.0618866845913 0.0618866845913 0.0618866845913
0.0163137746982 0.0163137746982 0.0163137746982 0.0163137746982
0.0602160212049 0.0602160212049 0.0602160212049 0.0602160212049
-0.0751754206506 -0.0751754206506 -0.0751754206506 -0.0751754206506
0.0741652026176 0.0741652026176 0.0741652026176 0.0741652026176
0.0316094552611 0.0316094552611 0.0316094552611 0.0316094552611
0.0192696290678 0.0192696290678 0.0192696290678 0.0192696290678
-0.0396336298136 -0.0396336298136 -0.0396336298136 -0.0396336298136
