0.879606180466 -0.271368258091 0.346759756387 -2.45203648914 -2.40046877383 -0.287642801959 -0.0804619572846 -0.796491850555 1.84600837424 0.0805770769464 -1.12356862415 -0.167484362663 0.29584216385 2.79730637435 -0.388751090266 -0.0425039257297 0.657715107985 -0.356730444584 1.12116966598 0.348161321689 -0.474106188876 -0.84334234744 -2.3927311533 2.70641467171 -0.247791841047 1.52924099968 -2.23722695062 -0.00719792491006 -2.37686631109 -1.14656139459 -0.0176770043464
-0.359461923996 -0.037138268906 0.130125765362 0.245266372928 -1.30371807154 0.406285905373 -0.217694248044 -1.53790965086 -0.286693478918 -0.0113875533715 -0.471592407924 1.33117631785 0.999515826306 1.03470024227 1.072729087 -0.0856797893651 0.572115493698 1.1942228421 -0.0599318585633 -1.58766318523 -1.14882887246 0.412170266333 0.747971989983 0.267088946133 -1.11579338731 -1.31557605357 0.25857360979 -0.168728408408 0.43523753609 -1.04009079298 0.0961311724841
-1.68305107014 0.907393125362 -0.584776711917 4.78209593311 1.50818915919 2.50877906092 -0.195896612549 -2.06059996661 -2.58180557872 0.0415934567916 0.00278029331363 3.77390743115 1.93579738808 -0.995176178061 3.63466120943 0.0258959365153 -0.260145295993 3.34946770265 -1.40356759039 -3.96458651607 -2.00057833678 2.89206726682 5.65954049716 -2.68081148905 -3.18481093491 -3.46616996405 3.94080421249 -0.159019231211 4.63099009461 0.874884923506 0.0226928534444
0.507980146555 -0.853340857426 0.589130784285 -2.51940774291 -1.18373975933 0.233062053532 -0.049851492405 -0.789519322609 1.08812845032 -0.0473030180457 -0.875760858559 0.207255242928 -0.270239558618 1.41299005949 -0.812672988305 -0.142990419444 0.8837098576 -0.918681883266 0.129619940788 0.378636204779 -0.216733340106 -0.79625779062 -2.06110560914 2.34607197141 0.398425914476 1.27466655412 -1.08360124665 -0.2121390001 -2.64820637837 0.479197728989 0.0342456901537
-0.43831065701 -0.155411482235 0.469731913193 -0.398171930122 -0.696091450118 -0.110924919127 -0.212692059538 -1.47618488985 0.243639726619 -0.0184171090985 -0.450477238569 0.321131253928 0.739472107792 0.33463492135 -0.158285446085 -0.119126537573 0.596825024461 0.849567748934 -0.068883024981 -0.995224388718 -1.02393035571 0.6867130792 0.104064090668 0.253288309651 -0.286811822313 -0.648586483501 -0.334604953628 -0.104222936008 -0.127655254775 -0.516657988257 -0.0370556558328
-1.51093977181 1.46550806988 0.144461701275 3.61926034097 0.689708615395 0.675475664662 -0.188072405558 -1.84327869597 -1.19185427914 -0.0460001221835 -0.0378195655165 1.39453165834 2.07255718878 -1.18978177834 0.878050929618 -0.0536103069163 0.101375763848 3.18273512148 -0.389254641838 -2.84088395794 -1.393808863 3.66592017866 3.90388290901 -2.16188730022 -1.8752797005 -2.30402784306 1.58597294647 -0.147816590849 4.19245296428 0.0567407805986 -0.0868136533765
-0.373221848966 -1.3123116689 0.489697738096 -2.53902560015 0.299739246224 0.450103868965 -0.1032824181 -0.682334204869 0.220071004339 0.0854954725008 -0.736403534488 0.358528203066 -0.471586438729 1.04709407918 0.0213684156079 -0.0333355888544 0.900786230517 -1.40999756346 -0.688030721119 1.30308251266 0.187021516501 -1.20843133868 -1.51854435885 2.06653514008 -0.0465887565024 0.509741219119 0.222835831772 -0.141942219856 -1.90873252481 1.39609995586 -0.03725091965
-0.820263348417 -0.119360369896 0.275809244771 -0.468803092502 0.124765977273 -0.108839870212 -0.00484453084764 -1.10802115951 -0.123615776856 0.0403149976194 -0.33314014559 0.141994257889 0.456884718656 0.470935057584 0.0162744039846 -0.152800678773 0.777327812351 0.143843915451 -0.418033196386 0.152309615572 -0.626341868553 0.180073644239 0.203356082092 0.197005039261 -0.817999870483 -1.08785472709 0.0765889031157 -0.197196800081 0.456137689409 -0.169606304007 -0.0796728920712
-1.31022028927 1.71990613008 0.0367435962733 3.26115680765 0.645477780818 0.356010051508 -0.0781310392139 -1.09861436381 -0.993376861035 -0.18968426338 0.0516560342098 0.41881442632 1.93910100906 -0.434257667896 -0.0372811443019 -0.131806032624 -0.0773911879827 2.40344918547 -0.330582261043 -1.04349661198 -1.3803509611 3.54176665157 3.1017780719 -2.22458223596 -1.91825247014 -2.16650440845 0.692782986695 -0.0603667483079 4.31588514927 -0.327737473215 -0.0145950206198
-0.521692590102 -0.829548713332 0.519886093645 -2.56677619632 0.346970405311 0.290025206508 0.0028577901936 -0.124567769758 0.585565749147 -0.0326332717505 -0.722568971062 -0.0911985532805 -0.266661057304 0.646111633557 -1.27218315492 -0.0266745970441 0.558100284324 -0.73259746258 -0.177138530629 1.00043800593 -0.207659695783 -1.00055316319 -1.51144176918 1.42278920313 -0.233129734596 0.333777369961 0.27711693742 -0.0679282011732 -2.0237597335 0.989519719306 0.0694907952112
-0.795780479597 0.0764576813735 0.0714469416507 -0.421064243795 0.169924047524 0.0677918400626 -0.15454628309 -0.619033110861 0.107450052097 -0.0422378315384 -0.271951117058 -0.0664882713444 0.692439692435 0.300714218721 -0.925897149226 -0.131001396119 0.13377665099 0.558753168496 -0.340096193924 0.240599003378 -1.00733183862 0.228461421448 0.00150617720867 -0.621382907596 -1.30662875195 -1.22818284001 0.437103904106 -0.196777710245 0.54280499926 -0.544229496669 -0.0238964017629
-1.18681334486 1.99385520818 0.027094849337 2.98216788768 0.338604922497 -0.143405796085 -0.080918708185 -0.612595933362 -0.667568144352 -0.140030623334 -0.144554286982 -0.349697581783 2.05300398631 -0.481274117391 -1.33161893515 0.0238483737736 -0.2195571202 2.66515229749 -0.0898289756813 -0.187340959726 -1.53939925135 3.17584939589 1.87043464642 -2.30949438338 -1.87559535433 -1.96178411667 0.285793933474 -0.00249053750401 4.16730259206 -0.849422929891 0.00982708888252
-0.776332293357 -1.07677882204 0.489194272592 -2.73121459487 0.691866699453 0.512370129333 -0.160645962453 0.626102739859 -0.0130295583446 -0.104457632258 -0.464617513553 0.366806165141 -0.152591271444 0.530592058059 -1.15776104078 -0.173742745858 0.866595235659 -0.624646280207 0.452122806729 0.47682406344 -0.131866672722 -0.817176656185 -1.28538410496 1.40602621768 -0.240383751402 1.05890387824 0.0373390130792 -0.0223323715501 -2.14068993722 1.02955805321 0.0590202388068
-0.778222491075 -0.025819992358 0.229545364721 -0.663182377709 0.167247200915 -0.575864494666 -0.0663735617768 0.116724508878 -0.346028087433 -0.110349026928 -0.171005575643 -0.375670316923 1.00571969828 0.215961082422 -1.01174190366 -0.136194249026 0.573856810039 0.813630648907 0.360312376649 -0.0141860216823 -1.04744231778 0.930315694656 -0.156857401379 -0.693823102666 -1.19101577598 -0.489102299431 -0.0783023943239 -0.18949834616 0.582869044323 -0.707185230701 0.0629625421484
-1.09818211984 2.16361170736 0.0763228852303 3.19644062446 -0.168147122112 -0.882492298821 -0.177855049405 -0.0472735795562 -1.10506583893 -0.158635178712 0.0772360042767 -1.15242547988 2.57052324741 -0.0297947797541 -1.55209545129 -0.11010523318 0.109882456944 3.3459739603 0.521092508763 -0.149036213109 -1.25991236664 3.87743081324 1.37131007291 -2.62718767189 -2.03223388988 -1.44328764589 -0.56217617466 0.0138203523662 4.60714322458 -1.11612195087 0.0612711575389
-0.0908033698895 -1.62295442217 0.501768778958 -2.80751854831 1.29480139301 0.130876695564 0.00770931781086 0.310998398226 -0.365907075993 -0.0719998946897 -0.247820953975 0.148156100514 -0.338298999634 0.0814332725505 0.268998875636 -0.027561793134 0.89131647519 -1.02292125677 -0.115162624462 0.416517736181 -0.074827268889 -0.60143260618 -0.9641930652 2.32854819433 0.0522111118492 0.887308921004 0.0644552239077 -0.0190211302148 -2.14009160474 0.577557767952 0.0589021151681
0.0496293677576 -0.385052298315 0.118400482068 -0.708362443635 0.384713336478 -0.783010332691 -0.124031350755 0.0777842480525 -0.223225344764 -0.166667734278 0.0770814846404 -0.435527089362 0.665580844667 0.0938412625816 0.212659605222 -0.0932941756143 0.325898411062 0.211803365951 0.0290337936485 0.0050478121637 -0.923059358543 1.07696279512 0.12960249539 0.281729074558 -0.699071597529 -0.548481961755 -0.101883802916 -0.187570476172 0.501900452407 -0.734232311434 0.0454150852267
-0.205706462997 2.09758152729 -0.204714577868 2.99730825738 -0.86764224077 -1.04446094213 -0.0184411667187 0.0199115637289 -0.363772813089 -0.237297776046 -0.125579134528 -1.31489206238 2.07125587323 0.502734791115 -0.810040453946 0.0155696376275 0.0276747303559 2.54768889703 0.740102689315 0.15547666241 -1.01101070147 3.9894501054 1.51011209981 -1.27761397898 -1.48206691291 -0.893340213178 -0.741229457226 -0.00103797208362 4.30085848902 -1.12184531786 -0.00664194696062
-0.015931797373 -2.06300254444 0.414286949222 -2.54203221241 1.63089752098 -0.267262695757 0.00803603184679 0.0333284642244 -1.33548394002 -0.162625345718 0.00608171685151 0.278646033279 -0.210123377475 -2.15147552218 1.20830892449 -0.132026876691 0.864667392187 -1.18588747434 -1.77460012194 0.267244735947 0.0876576556628 -0.565037314827 -1.03195502108 1.69243105013 -0.0557535696515 0.503952722799 0.558061820302 -0.149655637358 -2.54344217025 1.18445780678 -0.0363143906478
0.705184856478 -0.146175759555 0.101361937964 -1.02823223271 0.601758013426 -0.64345263222 -0.0987792928624 0.154939554746 -0.250730075106 -0.261088495946 0.0376975049244 -0.0365179445358 0.657256171847 -1.12956714255 0.518683712552 -0.0299658424208 0.280403590346 -0.0657084530018 -0.747361273952 0.680699994002 -0.669744410778 0.784985432288 -0.121925065652 0.282926764687 -1.15346107503 -0.360514362228 -0.0224187120789 -0.00267355160359 0.0396300701419 -0.437887080225 -0.0948522542503
1.00866332293 3.01313716244 -0.387446863307 2.33672308139 -1.04889550929 -1.55128481783 -0.0125328159014 0.523229649944 1.34869608016 -0.1895930608 -0.214402728707 -1.25551815408 2.10572790062 0.448059298206 -1.00917357764 -0.0548397138799 -0.0993569234055 2.39132080373 1.16814197846 1.52524771467 -0.934564021099 3.78190115976 1.49175979127 -1.42397156217 -1.85914090372 -0.545129638981 -0.90133590324 0.107679108787 3.95043459945 -0.922563951662 -0.023972257897
-0.287453060982 -2.66516027108 0.53270450502 -2.59501817288 1.64271213188 -0.542314087666 -0.204231966115 0.183413895549 -2.41988402939 -0.106078633765 -0.253457747275 -0.0688996611786 0.00410355681053 -3.81885608916 1.70368143993 -0.0546809093644 0.985955959931 -0.495072935023 -2.75754121052 -0.0863065567768 0.45798068126 -0.32514391773 -0.936749558706 2.29477540609 0.17135978403 0.821237747081 1.14736319768 -0.102466536518 -2.09839731996 1.78916427319 -0.0686227577549
1.45821751249 0.57079355394 -0.0578244942192 -1.10166625936 0.155030186323 -1.27072843933 0.0433964062348 0.841600291767 0.152283611078 -0.162822079901 -0.309888487708 -0.750903956556 0.99288349668 -1.3529240528 0.698092790276 -0.0714411462694 -0.0392472728155 0.884547825674 -0.0617933780185 1.1658403122 -0.841171910365 1.21287637791 -0.554191212227 0.106018651338 -1.67944314894 0.206485984648 -0.471684392167 -0.00265001775128 0.506200828853 -1.14521312544 0.0162124922855
3.2394694855 5.29790026562 -0.993222140857 1.9690986528 -2.10435426964 -2.50415133297 0.177141524212 2.34397446827 4.16699150779 -0.230812448265 -0.793543630308 -2.48723200168 2.32699927609 1.98733408505 -1.39629892652 0.14399138924 -0.831355643947 3.13609483549 3.74604430008 3.43383485431 -1.81057420255 4.25167947598 0.789822637207 -2.65819357799 -3.45700437137 0.307117376669 -2.13065633696 0.232810264419 4.78145067926 -3.06181773696 0.0346844220449
0.704564360124 0.0445823157211 -0.0474456868619 -2.21715094646 -2.0487767792 -0.586154904878 -0.146894170316 -0.487198914165 0.750101218435 -0.179797074569 -0.578264470869 -0.756003344508 0.304608270982 2.01789803535 -0.730269886823 -0.0592888520658 0.306277102176 0.187591629637 0.728076845373 0.0500205268415 -0.200714088381 -0.167056176441 -2.39148431311 1.75067819698 -0.370289290183 1.14839021923 -2.44150734581 -0.0228428109021 -2.05304096953 -1.25907715756 -0.00625514001196
-0.20618906505 -0.248599309334 0.132145124139 -1.20619099452 -0.964142279593 -0.0844341652292 -0.0319431697661 -0.979229920677 -0.828347891782 0.0121598555416 -0.230715263503 0.532407636468 0.501471718557 0.6234496952 0.941560802263 -0.0643201127991 0.374961838795 0.825611390819 -0.210241809033 -1.3458318765 -0.42932343269 0.306410232686 -0.639965641851 0.309961395915 -0.482701393986 -0.423990151539 -0.118233185357 -0.135040415612 -0.799819499083 -0.308293072589 0.0128474983998
-0.995815256137 -0.0787517873619 -0.312157251262 0.939242455811 1.49095255712 1.86882559576 -0.155212490347 -0.970553853216 -1.7828281405 0.090871058772 -0.0384898080472 3.13176322562 0.811887974853 -0.650754063689 3.46822044607 -0.0473368023735 -0.349093657292 1.34809222984 -0.909363952682 -2.70013975165 -0.974443040998 0.88577698503 2.86776076796 -2.09965951813 -1.95281009897 -1.59832041433 3.56360014224 -0.241753520665 1.19010341296 1.57650938103 0.0932894247856
0.282843195187 0.0778816369832 -0.147594027439 -1.5886729652 -1.00666815795 -0.0188101070182 -0.0530496508893 -0.235278789988 0.70119486355 -0.0889894623938 -0.592875925497 0.471848436341 0.215812528967 0.642665228961 -0.645045880742 -0.19157366343 0.229835991086 0.360649299709 0.0967269474604 0.200886198407 -0.389734869891 0.221892377859 -0.581336167595 1.46067909117 -0.391372982037 -0.0263391662208 -1.38248067723 -0.0483363731354 -1.4726561952 0.140847472976 0.0282249271447
-0.0363290735202 0.0398127383807 0.129273901303 -1.29129253771 -0.818415239087 -0.388711789972 -0.0363937513479 -0.788110904845 0.364480185529 -0.0518926123988 -0.236806848025 0.499950852767 0.346501687216 0.113162348314 -0.265249630862 -0.0984656116095 0.421165420776 0.697955683355 0.102399175019 -0.476704400923 -0.427355534152 0.199074243294 -0.080650024169 0.438869083302 -0.534044163825 -0.588553003068 -0.577190932912 -0.101191312639 -0.916591081159 0.194873133749 -0.0110886153208
-0.88484850657 0.906680467967 0.158714017047 0.269544731559 0.432646530492 0.236814789935 -0.0591047780648 -1.0138091422 -0.133086920419 0.0123607079778 -0.152311699625 1.10662493285 0.813628483905 -0.623349128861 0.414254045721 -0.102525680638 0.224974228555 1.42642290415 -0.0383422212836 -1.94007283099 -0.277158727443 1.30913250729 2.01065769382 -0.681705454409 -1.58056374985 -0.676720636602 0.87337969884 -0.13914230993 0.909338062049 1.08756376714 -0.0125383480405
0.399311299324 -0.184587621424 0.230711864976 -1.53158716042 0.103983593074 -0.323664535322 -0.117094957608 0.0151775775564 0.469626801979 0.011397920676 -0.388954802351 -0.419233698489 -0.0364329777131 -0.128289840464 -0.526648595076 -0.150890352608 0.192653550524 -0.178230049072 -0.242852633436 1.00471073617 -0.0134849965061 -0.350576382548 -0.667978353303 1.44277449654 -0.378827393566 0.130991606829 -0.671411537438 -0.135143233075 -1.37087634181 -0.0378345675072 0.0703938168213
0.422102763973 -0.341473881915 0.205204807458 -1.28685505022 0.228973796579 -0.489035954266 -0.176834341468 -0.319756179054 0.306240886523 0.0199525701855 -0.3005591199 -0.331039133009 0.165855001139 0.0690572885168 -0.156169237015 -0.150790527605 0.173155118 0.105771308949 -0.186528240536 0.417576936478 -0.298833731294 -0.331728678182 -0.19565163675 0.20685660576 -0.658968166852 -0.561012595977 -0.397284371275 -0.0987539355541 -0.761991032427 0.0903638509484 0.0957001827925
-0.191571404901 0.367525007345 0.0515215454873 0.214335198625 1.10408884267 0.00272705144232 -0.119523499764 -0.235685039232 -0.0564442194236 -0.143788347386 -0.0747075296186 -0.077328100906 0.691485456679 -0.551166495368 -0.00779004499775 -0.17261111313 -0.331511194744 0.841209385068 -0.0200882523088 -0.323162055762 -0.284684141486 0.947645697467 1.24958758878 -1.21090044313 -1.25141681001 -0.455634615697 0.208454738802 -0.070740500785 0.961160903887 1.0258685071 -0.0103600427675
-0.214612056674 0.286377531265 0.212018022914 -1.63514878409 -0.751973296882 0.724377724498 -0.13170069541 0.0516716971388 0.169744787826 -0.0875143787858 -0.651833158849 0.246201334276 -0.0262885833402 -0.217306241725 -1.29279896919 -0.181154427495 -0.095033936578 0.150407088834 -0.53891458837 0.251020464057 0.158948468353 -0.344978164665 -0.0376564992289 0.996690592795 0.340742231137 0.723766034965 -0.111154261229 -0.116862301534 -0.983836206865 0.34763606686 0.0690238143214
-0.173866510314 -0.217274528586 0.252916776447 -1.17976688743 -0.441401186358 0.153393385479 -0.000799770421122 -0.645507003103 -0.209929469177 0.0279292287049 -0.217613371084 -0.0161647484715 0.294386116256 -0.275410048788 -0.872358892038 -0.101123214227 0.086597838306 0.405924428268 -0.746346647998 -0.712923256221 -0.165980751789 -0.31794363032 0.068094047199 0.174522880393 0.25793702321 -0.196899496291 0.513659737643 -0.0929413888915 -0.34130198129 0.066853802463 -0.0413807161984
-0.493183423508 0.309640641184 0.270299689022 -0.0201421914009 -0.00731509614744 0.28201710117 -0.0266225424351 -0.28340622583 -0.608280308475 -0.112281817649 -0.0403054748679 0.011142824397 0.812945914768 -0.24202852751 -0.777745252791 -0.0105311347834 0.0349094495198 0.889810109031 -0.544158660013 -0.959578882677 -0.0595710035327 0.560878904256 0.563127509578 -1.06893873183 -0.338754882097 -0.10666362492 0.538564826503 -0.0519205170741 0.888320608415 0.508849640619 -0.0376561499044
-0.492927620653 0.275605605762 -0.0115580002065 -1.215621662 -0.320162148401 0.631398381005 -0.0158986846819 0.462771656478 -0.354624230573 -0.0537134667865 -0.686012670843 0.349400889356 -0.168555894812 -0.158127191154 -1.34623027342 -0.146415910504 -0.154493302707 -0.0666794859427 0.12552168129 0.306601474909 -0.0780211843682 0.154256656403 0.0307307580562 1.13413315772 0.0530671920043 0.318874411826 -0.0178968294953 0.0191953716855 -1.31821674687 -0.370750776689 -0.00283030607742
-0.564048637755 -0.0252840612904 0.233926147476 -0.426939157898 -0.569158214138 -0.267268026018 -0.118023803086 0.0719578567251 -0.454783578 -0.0389805918001 -0.197871472987 -0.188122594804 0.441929156417 -0.364822387516 -0.936249365067 -0.174197035948 -0.0613748121874 0.168392523531 -0.201738521829 -0.40657975938 -0.4400044676 0.361258281382 -0.367903339992 0.345980193711 -0.0360724703744 -0.37063160718 0.333956093106 -0.0431614683668 -0.538125490189 -0.503950174797 0.0673087144977
-0.626929675259 0.201020707112 0.182646616882 0.570070324933 -0.080996324742 -0.0959653465382 -0.18675682015 -0.0545945241485 -1.08164430305 -0.0277673589243 0.00250337330775 -0.156472097708 0.821576942033 0.0314601451298 -0.839169184512 -0.0597077449812 -0.1048096138 0.762596621758 -0.163309867917 -0.218488802118 -0.324512347835 0.739837209387 0.121202500662 -1.05300087376 -0.711617920652 -0.722093707592 0.696576944312 -0.113266415506 0.620363663569 -0.000604629396364 0.0540561675078
0.0883280023532 0.186526459228 0.0253317517412 -1.08307754687 0.0484942809243 -0.535452172042 -0.133540324265 0.525307010263 0.248336872942 -0.0581113417885 -0.341397540731 -0.141433550846 -0.0247744300677 0.298677930928 -0.248718515283 -0.160475032408 0.167249501288 0.129358544535 0.380932983552 -0.078119958986 -0.230544883792 0.333977454714 -0.177836552929 0.735914505771 0.0814614493853 0.509899342469 -0.883381575047 -0.141481572501 -1.13602401992 -0.229932401093 -0.0700003614018
0.0695198173879 -0.050127106744 0.115961781374 -0.349827924566 -0.173927248377 -0.699156948917 -0.0268552278239 0.222323194386 -0.387838526514 -0.161848607161 -0.0553129049998 -0.361523534405 0.330355402891 -0.0924765515268 0.246197355069 -0.0963463539007 0.0417030305197 0.0892268312871 0.174073374526 -0.279256627018 -0.476688055529 0.543520833835 -0.0501622361019 0.189285077721 0.222556814184 -0.0693893712272 -0.359374957793 -0.133570916077 -0.595155528961 0.088512911703 -0.0771006255991
-0.248236046967 0.771803346546 -0.108788813163 0.926427214221 -0.277620899286 -0.363756016203 -0.0462824000755 0.182205793478 -0.214616624812 -0.202832687623 -0.1618395608 -0.556352260892 0.74146127626 0.300200219064 0.238052739123 0.0362110688283 -0.302456447112 0.658985061175 0.33254550194 0.221107593134 -0.27543144029 1.30538373868 0.379713393283 -1.06356121383 -0.34685991714 0.0628413359999 -0.124431728508 -0.145973059971 0.755391402276 0.46310849254 -0.0393025607787
-0.0621711037393 -0.381602852923 0.133753889955 -0.782042498876 0.627777965779 -0.476784153747 -0.104898722735 0.0568151649683 -0.810290589683 -0.106121198557 -0.16370675385 0.106598325347 0.144210799041 -1.33580738668 0.62971136533 -0.0142701593229 0.323916723241 0.385925130419 -0.857905534912 0.11463958858 -0.00760117490396 0.178864664484 0.147829367494 0.468311776355 -0.0290160261083 0.0311100568507 0.53378230718 -0.0536144595049 -1.30461841425 0.396931119589 -0.0646281838809
0.311970410324 0.0455910761485 0.0059013543553 -0.744169028683 0.0185595444035 -0.608672255167 -0.0683443999426 0.110098849402 -0.420564299252 -0.218087694804 0.068392130542 -0.14459370476 0.412892080533 -0.919479453129 0.391932406677 -0.126780622392 0.0590346100478 0.0939923335464 -0.590213330148 0.22963420802 -0.29014636313 0.154918533699 0.0241782055352 -0.00110228236801 -0.3793344281 0.0679019542212 0.475067989911 -0.151081124515 -0.852320248312 0.0239086408745 0.0854968358859
0.719301699116 1.84119245757 -0.480696161232 0.425361010176 -0.835850832284 -0.89293980986 0.0232203117754 0.426241495544 1.14533529835 -0.0778604263722 -0.260732407214 -0.82902958275 0.849695077534 0.538742103821 -0.398746022094 -0.0982435345644 -0.284396484515 0.606871564401 0.739906549104 1.73637590621 -0.506123451987 1.10670830273 0.66951415866 -1.25830830783 -1.18371260984 0.447611185998 0.248801357792 -0.0124668255712 0.981370112282 0.292970471397 -0.0772776731332
-0.888646640854 -2.39584757486 -0.0187011476487 -0.880797739488 1.4653409032 -0.0984709343071 -0.104657067868 -0.357191461612 -2.25031872462 -0.090167606419 0.162981410177 0.540348835783 0.11552099387 -2.92346561935 1.59846289839 -0.189780319739 0.603193339987 0.409338561529 -2.37721611005 -0.923235845038 -0.198027519156 -0.183122441201 0.158542695068 1.10502218546 -0.234642325505 -0.542555329762 1.57755364206 -0.0422519447867 -1.34288425639 1.51059229287 -0.0430457495193
0.662440779074 -0.203136407159 -0.242122338898 -0.86113589746 0.1659500725 -0.889941194247 -0.0736202441327 0.47498634026 0.25223743837 -0.109801987065 -0.00165118418091 -0.191715524458 0.29769722556 -1.00998152179 0.885391509287 -0.0346910607466 0.0349762531747 0.223138241437 -0.0232454014192 0.642463187421 -0.930254786758 -0.0134984003447 -0.557787683992 -0.0444847447672 -1.41665055873 0.082910641836 0.0648984028268 -0.0336677641408 -0.25517105088 -0.676110969748 0.0596182706589
2.89270760222 3.47609771728 -0.973252355528 0.279740397766 -1.66962406074 -1.5106935021 0.127955787639 1.68729516405 4.05242502579 -0.210830894792 -0.704779611939 -1.50142941011 0.92022125497 2.18950609563 -0.716559879452 0.0636083501047 -0.812581467163 1.38021784663 3.53441403535 3.57452467017 -1.52261870042 1.51763365437 -0.0379555164341 -1.97370348893 -2.85930579604 0.922555521936 -1.40444681703 0.0662915515433 2.12972708383 -1.84537340497 0.0661200919438
0.972159400999 0.85336703314 -0.449427991209 -0.116012774579 -2.52750623366 -0.836550655338 -0.062417126885 -0.73473031574 0.862529438423 -0.0103823072072 -0.656122010505 -0.816926016737 0.659584539299 1.89271127924 -0.96080394943 -0.0983940029441 -0.411989579906 0.0966990063444 1.17312129493 0.628463594682 0.137382022796 0.115507004424 -1.76534395028 0.811160183809 -0.107207758756 0.493757255085 -2.15187176862 -0.062867753982 -0.407505195802 -1.02456036441 -0.0575949885378
0.0784172093551 0.0386881935911 -0.379665937573 -0.225733126086 -1.34209568558 -0.155954379689 -0.150376916736 -1.02811837411 -0.745919920918 -0.0516511854917 -0.358634459956 0.856716090551 0.437648824232 0.185024959283 0.829722526307 -0.108087767545 -0.0604264867712 0.237825976422 -0.26490327618 -0.765303194228 -0.110517006558 -0.117026493301 -0.690327794013 -0.0439982534775 -0.878273101768 -0.781154751277 0.363716751047 -0.0396520430156 -0.233467687977 0.42181513797 -0.039297045793
-0.850290220285 -0.0483320011389 -0.740701519814 -0.123321313476 1.55672244613 2.01366095219 -0.0552932569285 -1.01874414828 -1.48298383195 0.0543159795883 -0.05871172892 3.42362278784 0.0716754357814 -0.817550756925 3.28568599731 0.0257703299967 -0.495299514848 -0.131420401883 -0.838616151913 -2.08734947397 -0.215140186823 -0.204070808059 2.32878690337 -1.67330824749 -1.83997534941 -1.38449568944 3.77961762072 -0.233486456856 -0.146137966758 2.41508751886 -0.0886701292311
0.509675315532 0.525965135223 -0.794141126795 0.33482513704 -0.740013086405 0.024218566206 -0.153482136678 -0.690336305662 0.260871076928 -0.0822163940118 -0.353042644919 0.122812987166 0.479568264138 0.756724050591 -1.01877217608 -0.130079993194 -0.293738832387 -0.0712738359949 0.306371530367 0.794279917538 -0.202904112113 -0.15302775197 0.0730036063888 -0.00930066007511 -1.02099755777 -0.557203435364 -0.992845785268 -0.0111336455764 0.467782662592 -0.171094789352 0.0382060398644
0.0652183772535 -0.0632535547674 -0.289082528633 -0.142433943319 -0.610107219352 -0.281779920466 -0.177758527124 -0.779132234606 -0.21053328035 -0.0662175796472 -0.268251467841 0.423306950404 0.218239436121 0.149658559989 -0.462824780753 -0.0895032668606 0.165536770683 0.128854393123 0.0425193332934 0.311364472431 -0.146355940083 -0.813171654132 0.143235458204 -0.2070348217 -1.11640285461 -0.651119659343 -0.347120128211 -0.125245664989 0.091330059398 0.225630514879 0.0435171671675
-0.544175758464 0.473545920692 -0.21908978737 -0.280934983175 0.554893229377 0.364865554159 -0.0779226218971 -0.812041128769 -0.568506800066 -0.000356756326712 0.109179191552 1.28228168431 0.202556752768 -0.681755380903 0.0795502822744 -0.0981054665938 0.365259195522 0.140700811673 0.277118985253 -1.07164807375 0.29301377851 -0.518171659929 1.31028518994 -0.496901060098 -1.44508865419 -0.0901461467593 0.620539284706 -0.169191409009 0.00478885473201 0.777769379959 0.0444068022054
-0.0330940625746 -0.129912881488 -0.480449457942 0.060525773372 -0.0970070089123 0.0926964678034 0.0244356607089 -0.161534018717 -0.207594952012 -0.0603085189087 -0.443304880398 -0.404141969197 0.175357736318 -0.378100892403 -0.226915047798 -0.0730014230161 -0.0590769225535 -0.190434249029 -0.303575201251 1.20278549879 -0.124410125152 -0.681782841777 -0.460086053827 0.303647241252 -0.406169086432 0.0623091015165 -0.658663370338 -0.0640575877495 0.293829052051 -0.305837712236 0.0257011710039
-0.211601301456 -0.551298998044 -0.474555268057 -0.195452624594 0.227264621417 -0.0112887172233 -0.108265394741 -0.737797965502 -0.103519401286 0.0314653076983 -0.00146625646642 -0.04110601984 -0.103078673116 -0.401394456317 0.00756564697282 -0.0633851090599 -0.105930142444 -0.0999379603695 -0.595657530942 0.56447187105 -0.162406875025 -1.19082528089 -0.267196674832 0.0505712481299 -0.787293408588 -0.318185695735 -0.253048190388 -0.123594869154 0.0261293663898 -0.258441331842 -0.0406161883015
-0.439631935605 0.121798262248 -0.623460095683 0.362717356052 0.540172056508 -0.0608123357006 -0.0968058217744 -0.536283391213 -0.0764999052187 -0.15270946427 0.14140483343 0.115321166095 -0.0178589230117 -0.930788928708 -0.333661225415 -0.0602759813353 -0.264178367208 0.136238041437 -0.367091731879 0.167968537366 0.172081209338 -0.202307737177 0.399721394876 -0.798600571356 -1.18709650274 -0.0579623388568 -0.43788381449 -0.105248010375 0.516822759974 -0.229134863028 0.0879866756597
0.23563349501 0.62892255265 -0.386970976787 -0.228656085799 -0.422899139538 0.0275960589843 -0.0973051515541 0.11737286453 0.0955929489105 -0.0318540482811 -0.60307870167 -0.252184648861 0.227759790555 -0.147771548418 -0.819256091449 -0.0906179669966 -0.568720483309 0.427545380118 -0.356754497508 0.518457752554 0.132344569935 -0.393879870788 0.308924273864 0.342848979664 0.175767386896 -0.00844292674735 -0.44833759882 -0.107405182158 -0.0128106238596 -0.475941356319 -0.0362732962547
0.0398171071247 0.212824811462 -0.268775077287 0.0340088718792 -0.275879612704 -0.452197595587 -0.0394382383347 -0.682142363524 -0.171476468597 -0.0364267681467 -0.35710698003 -0.483550338171 0.274928319936 -0.326397319032 -0.673893495927 -0.0438021685524 -0.328809421271 0.325101507096 -0.38643016168 -0.781291791429 0.0764833366405 -0.672514413536 -0.00102276759141 -0.0179898946461 -0.335354695593 -0.431156152274 0.000886345812301 -0.0708752214038 -0.0156290892383 -0.723144746773 -0.0520617290976
-0.209706268941 0.421476932225 -0.477572994382 0.233483666094 -0.118426673812 -0.833559542037 -0.181485851951 -0.399009605446 -0.0511432891791 -0.207498535612 -0.255923995912 -0.839402819612 0.32008438007 -0.195671244433 -1.01212864932 0.011124174463 -0.623306093812 0.410762148206 -0.227470545658 -0.909490434633 0.253269331928 -0.390290768902 0.110910653182 -0.705062555754 -0.866382760751 -0.069165493852 -0.663947573722 -0.111028818781 0.401002076719 -0.678383374849 0.0841476539278
0.0532536094149 0.214021480557 -0.510186973966 -0.382330284415 -0.21558002134 0.208403689791 -0.0384565336082 0.637060638895 -0.124035500427 -0.148721493593 -0.525870353479 0.120031618343 -0.0119837398815 -0.118954818632 -0.959385215473 0.00636852881421 -0.651032744977 -0.579180971961 -0.040941567474 0.950017845576 0.165400452933 -0.174680979428 0.695470961768 0.597217698065 0.422452678698 -0.258549750599 -0.188173621948 -0.115004993053 -0.589067628624 -0.440621893316 0.0313593460295
-0.139226708049 0.0126500977282 -0.376629535519 -0.0993358038973 -0.282248551469 -0.320105010604 -0.174942345677 0.258579359592 -0.276584565154 -0.198304847976 -0.235736186534 -0.186344226027 0.258189932228 -0.311822362751 -0.634203820796 -0.140650906289 -0.645507121261 -0.706829084186 -0.224895834971 -0.23537514152 -0.269769731208 -0.407049108007 0.344391253235 0.514688339394 -0.112587468848 -0.69005801536 0.455475668334 -0.001414092618 -0.530129709297 -0.561872272355 -0.0698440274254
-0.47547290461 -0.0132272667074 -0.494906329051 -0.336534922614 -0.259821338584 -0.507011748233 -0.0499918032748 0.044631961993 -0.585955474017 -0.170743256327 -0.104653856289 -0.323570592369 0.137273044686 -0.0547033180352 -0.66386265119 -0.0251437730799 -0.592541539955 -0.502024366907 -0.216462219125 0.113784139759 -0.121000239812 -0.308677612763 0.167645272611 -0.0740351252899 -0.59607454321 -0.327184082851 0.209131675266 -0.192280530415 -0.364459364623 -0.335640923713 -0.0772631242151
-0.331534720021 -0.452523952032 -0.343191180886 -0.116139624925 0.313809224316 0.0493330875135 -0.0475800105424 0.186600352124 -0.117723056117 0.0292930847439 -0.0988614644068 -0.152648978764 0.159942990318 0.0179524825027 -0.207424028476 -0.141069169811 -0.199509559243 0.0245661853559 -0.0701709066126 -0.707185393785 0.335360242449 -0.392785585353 -0.257193199816 0.386234560907 -0.0547961447995 -0.0920818539606 -0.175851324966 0.0229976937193 -0.693326514507 -0.108070542579 0.0183625923241
-0.459772779374 -0.176713355098 -0.402784815455 0.203957249978 0.216781899088 -0.17304764306 -0.00409022820919 -0.103507964849 -0.440309621416 -0.0482279893605 0.123631863686 -0.189657477421 0.257153596627 -0.236897102051 -0.0595496342604 -0.162693000714 -0.358904832584 -0.0751116012381 -0.23494853522 -1.18170279831 0.016102353039 -0.1753677965 -0.249919338051 0.397322336714 -0.271701339193 -0.537464456525 0.0556230675897 -0.104057848327 -0.131682349377 -0.358733674106 0.00359359895193
-0.399722909824 0.285040128018 -0.391695858325 0.388986765071 -0.127352536835 -0.336968125847 -0.136608296602 -0.0728106795027 -0.00701226373656 -0.146721984252 -0.000921282798332 -0.716160170971 0.0505123212124 0.311468877783 -0.74789810637 -0.0270897257811 -0.752427651616 -0.00587412888159 0.363838245723 -0.29220498202 0.169226615142 -0.22628772254 -0.360612680998 -0.31452751668 -0.380726602406 -0.00518988357525 0.0019180713725 -0.0812195216055 -0.058305450872 0.0472136682007 -0.0238529531703
-0.614391142598 -0.408640558599 -0.309049057704 0.333454658093 0.975095620394 0.298490404052 -0.139598814758 0.189420049978 -0.66595267816 -0.0885433022101 0.114597182372 0.0238795040961 -0.0639772420786 -1.09402333552 0.0526610812258 0.00134278082239 0.0461257438762 -0.432842770873 -0.456965503914 -0.427698523696 0.48387764366 -0.253203632487 -0.19648171089 0.214908664117 0.536569975845 -0.203892280064 0.481725109126 -0.0674404796305 -0.750093829139 -0.0559024117393 0.0986379149745
-0.166368318035 0.0379999201066 -0.157980644947 0.327934449655 0.375506831903 -0.0149973797062 -0.125471804809 0.0436987602258 -0.493898816942 -0.190069954186 0.245829010077 -0.213490624652 -0.00836552886223 -0.820555743742 -0.107675304315 -0.0905715588544 0.0287238709703 -0.501141892925 -0.0983246603447 -0.206350185898 0.236154898443 -0.341922539403 -0.370956409478 0.433991110473 0.0613035842704 -0.0802539076093 0.281620646721 -0.0448592213165 -0.265676390258 -0.401214667417 -0.0367801249686
0.510033241796 1.16644570715 -0.547295397437 0.967008613779 -0.296513117418 -0.396568537889 -0.0839889784895 0.291213676878 0.952807246405 -0.0268774419528 -0.153991286232 -0.791305330086 0.0861137098627 0.23690514599 -0.825600996945 0.0373980471883 -0.316700053832 -0.357852503884 0.964438408799 1.33284973012 0.18801791 -0.0287116599569 0.105986039287 -0.573249514477 -0.143478649165 0.383554694853 0.244315417794 0.0652301739792 0.362323802299 -0.00446826983506 0.0581676775473
-1.45254316454 -1.70579676184 -0.661568342787 1.15599180183 1.34037149322 0.130501941321 -0.230149517446 -0.479151379403 -2.31641303089 -0.0148182714005 0.342224866566 0.282158390249 0.355446147464 -2.60888880458 1.68888669043 -0.102129464268 -0.331671132785 0.364924847566 -2.06225400913 -1.27822676186 -0.152794962769 0.516126825943 0.890012870908 0.619222071279 -0.124702247119 -1.04076387215 0.751294258452 -0.105085466063 -0.104682779083 0.66005059826 0.0682407714103
0.234357206594 -0.0391240751103 -0.855879595269 0.43363726255 -0.0926503931159 -0.763953743026 0.00157156484896 0.272634980052 -0.00963147462682 -0.2166267759 0.121748220643 -0.660394750695 0.309671020004 -0.681732169283 0.83874050838 -0.13428094287 -0.574911176684 -0.0323325163233 0.130003209202 0.261905733429 -0.489022299192 0.40859687843 -0.0984702617084 0.487120837623 -1.08485220707 0.0480821719463 -0.625448064382 -0.0889928026248 0.174791714089 -1.05264030104 0.0157656805086
2.6037364984 2.44141056295 -1.07479689202 0.169932905824 -1.67623062268 -1.26002103298 0.0567508175995 1.53242987155 3.73440273452 -0.238278843508 -0.668868855 -1.55440811583 0.378654548195 2.25592756656 -0.566241942334 0.0184638387122 -0.942549500588 0.469143295302 3.35982368232 3.48018068882 -0.774555289098 0.924543742056 -0.0951681911111 -0.787049301701 -1.60434871422 1.46979886807 -1.93146484973 0.0789740425646 1.14796814699 -1.95438825238 0.0936324236039
0.811118600829 1.01447387125 -0.622676417721 0.339498153704 -2.46908375151 -0.915226656194 -0.00923882935454 -0.406654267608 0.374942114014 -0.102653608008 -0.629466138032 -0.491622831253 0.344361573128 1.51850030699 -0.75978993531 -0.150063716069 -1.28368476754 0.0201030757098 1.08845076735 0.054134434677 0.193032906849 0.579604862442 -0.952627455616 0.933502470117 0.252712428206 0.527098679983 -2.25374237373 -0.0436254003102 -0.19698029014 -1.30835730036 -0.0354084782718
0.248939869902 0.054755377762 -0.684036114626 0.195957241008 -1.21430638413 -0.0824543443066 -0.223666076997 -0.952602447786 -1.32846263818 -0.0337230571398 -0.344077750275 1.2642440421 -0.0232369362842 -0.301496565305 1.50245117191 -0.0952653811998 -1.15848784181 -0.20856986478 -0.228164811822 -1.38008333641 -0.161947440579 0.308889979306 0.139876718994 0.268748827767 -0.554049671282 -0.761780568946 0.195310956374 -0.108540290025 -0.363529784655 -0.0464497148405 -0.0756606234354
-0.735505133098 -0.519475491758 -1.13960892132 -0.679616020714 1.47244373823 2.33504073578 -0.0777731813937 -0.905808006976 -2.1263849341 0.0334162909967 -0.0387088022087 3.65282006675 -0.535842180333 -1.6901843582 4.07898251486 -0.0989794108694 -1.52307521708 -0.239844134826 -0.851422299614 -2.4776049586 -0.163710087488 -0.0136173707754 2.56729221592 -0.883719003588 -1.28486326181 -1.20025005619 3.72470914508 -0.243255639687 -0.766836710363 2.13626813825 0.0365412172311
0.731397944409 0.116525644124 -0.679413250886 0.0826442725959 -1.00282728972 0.0357944782058 -0.0496763524833 -0.738148370005 0.413022944549 -0.0647696131056 -0.422553948208 0.0426181934422 0.169886096943 0.744778156154 -1.04616497486 -0.109352385606 -0.818977360231 0.00298732455488 0.359350238891 -0.0268712625389 0.260307020737 -0.238465943661 0.231968623919 0.0722079816911 0.479994263546 0.0540155424249 -0.975236640861 -0.200691707514 -0.00830283870046 0.490470871254 0.0976257388937
0.386599124856 -0.392898180714 -0.477295959047 -0.0245875557166 -0.599305474367 -0.325390674016 -0.0953071714634 -0.866578951364 -0.120796411871 0.00660040434122 -0.113323121075 0.523793651746 -0.155043229225 0.257115172723 -0.284795565526 -0.199499325993 -0.700683474149 -0.254668007443 0.156466854342 -0.386710081479 -0.0657186932278 -0.798588632556 -0.0125791971241 -0.365259184877 -0.186241105027 -0.215955456047 -0.590308015421 -0.043315225064 -0.572852029661 -0.000613629014015 0.0652504751585
-0.0237404076681 -0.123982232472 -0.486069368675 -0.471674293639 0.271621375904 0.292578325254 -0.140907616772 -0.569205056554 -0.396519981669 -0.0471163601212 0.0566315157181 1.28160280834 -0.301480927651 -0.610909659469 0.0982070777922 -0.166808507126 -0.748969188712 -0.359522076817 0.175797288443 -1.39152445628 0.503871083675 -0.58059850344 0.601487292014 -0.0838721099321 -0.200170013174 0.556262531774 0.227034073752 -0.159412275204 -0.913332948378 0.22046298482 0.0924001702827
-0.710581991903 -0.153070837929 -0.83368090684 0.295092664621 -0.0757148056996 0.0135741617679 -0.0098402123498 -0.253685764715 -0.226487582501 0.0169996931827 -0.391173540811 -0.45021583892 0.235173792173 0.573919532468 -0.59134380914 -0.0957111506518 -0.47051957552 0.284679583803 -0.418902633608 0.750626243626 0.0218879204595 0.0546640391374 0.392956379102 0.284212400426 0.408870938702 -0.459613758366 -0.16049341221 -0.173561531096 0.108973917498 0.812029590748 -0.0550528040951
-0.848898851604 -0.575321159733 -0.918189986148 0.0905356904392 0.480879633505 -0.293555774751 -0.111622872879 -0.654565734886 -0.342346850054 0.0565934529656 -0.080102009159 -0.482453985309 0.175276456002 0.43474745008 -0.450889900781 -0.175700864988 -0.737807446689 -0.108339861868 -0.540924732727 0.234125741508 -0.270358435767 -0.236653296116 0.0588640800221 0.170645445562 0.0321659255971 -0.270316824514 -0.158127419224 -0.108217780634 0.00857197962987 0.0886840162811 -0.0667864953902
-0.775239640005 0.0174168307936 -0.998803357122 -0.0354299388025 0.718137785206 -0.251818061974 -0.153752918629 -0.408222047126 -0.0844124590859 -0.00574594111847 0.0393966883578 -0.0917925226054 0.0543187531511 -0.00303002393071 -0.847606930308 -0.0185180954032 -0.917458782122 -0.421101649541 -0.20698614246 -0.225339739924 0.110094347069 -0.0513239732811 0.0511660600517 -0.43958461197 -0.337413922348 0.163219468151 -0.51672463752 -0.123539898561 -0.278065064597 -0.367442913711 0.052617002438
-0.398528269996 -0.099546331817 -0.609800349331 0.510146187103 0.127868699958 0.170374027521 -0.142129611519 -0.0883338628303 0.089519831669 -0.0237379778841 -0.488775839197 0.0766967329854 0.392283033104 0.202175046354 -0.468219909382 -0.161865730165 -1.03743080753 0.578841726111 -0.16600879017 0.712300866183 -0.00189190933276 0.533591580489 0.505637515573 0.296757465877 0.465096527375 -0.219421748556 0.00572400110203 -0.0566692865848 -0.329653587341 0.478218186308 0.00380724528342
-0.73367520043 -0.534070749548 -0.590791846777 0.635817532918 0.211743634747 -0.548111131966 -0.0893565473565 -0.83147426341 -0.319512018541 -0.173434656645 -0.242759889722 -0.100947249483 0.344812592513 -0.0404186453094 -0.391132067589 -0.0154286014668 -0.872494046131 -0.0271927215967 -0.34122370141 -0.734581791449 -0.261909925694 0.0386060198048 -0.136666289963 0.27907560976 -0.233388338001 -0.690503174453 0.299876273692 -0.220516113125 -0.235218927787 -0.266947725188 0.0790053973034
-1.10268313584 -0.0989568366395 -0.85279874091 0.728392573426 0.333988300926 -0.581724441379 -0.0808142474135 -0.73862890602 -0.525112804113 -0.158149377506 -0.023903868558 -0.311887069859 0.121747048525 -0.0770781699199 -0.878191903099 -0.200061491488 -1.38955066202 0.0518153079684 -0.637676118122 -1.01099020741 -0.119515731685 0.0935791493829 -0.117992101584 -0.41837458249 -0.517594007273 -0.893601132661 -0.129272906616 -0.169042533173 -0.277061631844 -0.506658728693 -0.00532053379619
0.0716033876708 -0.00869645747961 -0.245542906273 0.180141554695 -0.0352550989672 0.0854991753514 -0.0348727662178 0.884201975705 -0.429367339099 -0.157717909688 -0.19051565515 0.166174942468 0.0452623433726 -0.145995742306 -0.96721982305 -0.0411323763042 -0.635036746233 0.197082853246 0.32379474275 1.05452776795 -0.183228936751 0.169520297056 0.763533884925 0.385707801501 0.610286244658 0.0573637233153 -0.0261344420714 -0.0323303352916 -0.326536416088 0.0271927253102 -0.0839272506602
0.0740899992671 -0.288943665851 -0.66863860971 0.479143431722 -0.0871526218244 -0.581558736816 -0.0708534839412 0.373032778623 -0.155719331672 -0.117515834878 -0.0790322065651 -0.240415618731 0.182872420773 0.307003491008 -0.549527023414 -0.083957330934 -0.814593419283 -0.300778273383 0.428077547897 -0.0113637620759 -0.58377332725 -0.299186417871 0.042233956131 -0.00499639488695 -0.490471362766 -0.524327695936 0.250825631727 -0.126921418756 -0.00652977415115 -0.623276501709 -0.0669038572911
-0.222196509804 -0.221593738797 -0.776408082392 0.0771995619032 -0.552090558933 -0.812611733937 -0.0318150654864 0.0157393612012 -0.0690048055648 -0.101704622724 0.0772941777936 -0.550754696427 -0.0191230720225 0.728898614175 -1.04992821975 -0.17173147111 -1.19139110781 -0.556937470209 0.306329852857 -0.0988036774481 -0.430304155084 -0.318051694098 -0.568434550839 -0.255970747917 -0.689132276469 -0.708868588282 -0.27004953329 -0.106929080701 -0.403297661762 -0.689030176491 -0.0912692263068
-0.136754564251 -0.109903707155 -0.278071466563 0.189207237136 0.628742121617 0.423670565742 -0.130870574648 0.881917122699 -0.0130311018878 -0.104197896634 0.142514657348 0.0432783457037 -0.00621119806787 -0.190678314645 -0.050389131347 -0.00823145460825 -0.347908157423 0.00486803657877 0.330527151481 -0.0988925514348 0.163420495095 -0.450891488006 -0.391075430583 0.131764999145 0.455998528127 0.0429426675057 0.0390205404927 0.0117772444043 -0.568324767489 -0.0823485832051 -0.0372889084531
0.12261885126 -0.285809940377 -0.510859405361 0.0389821997391 0.383303055367 0.0922580454783 -0.00194541680251 0.34843915213 -0.00906383390288 -0.155907192813 -0.125057611515 -0.100136753165 -0.0125249633646 0.206132931106 0.119476419194 -0.00134331576059 -0.586002990307 -0.400323951405 0.11523080584 -0.773793692704 -0.244598495478 -0.871882549235 -0.762831243967 0.0546881102892 -0.477778257478 -0.296480186385 -0.0749472975341 -0.0230326795133 -0.0796343947293 -0.695741479018 -0.0594945962374
-0.39509598298 -0.345171860813 -0.328968939108 -0.241533740794 -0.177942938932 -0.0529594084134 -0.0785816163115 0.07842394902 0.339793392522 -0.0596108623094 -0.187415196288 -0.701613448985 -0.370793870597 0.498818442516 -0.519284799547 -0.155168409914 -0.69593135384 -0.644943123018 0.277039259157 -0.602033557037 0.215106179275 -0.848089248963 -1.03791261122 0.397673815234 -0.135330789094 0.00222185320852 -0.284067908638 -0.0188793487507 -0.334436171137 0.0616863166271 0.0303070929429
-0.419252317805 -0.144601007337 -0.569786908818 0.188849742027 1.36177507325 0.259805627111 -0.189254746277 -0.0232030855252 -0.750293703066 -0.0343694131366 0.191210175008 0.178991197026 -0.199697319984 -1.17303632554 0.257705537624 -0.0417210026266 -0.891540449003 -0.123396607012 -0.701878017371 0.106131132394 0.270757427534 0.303970158357 0.650104921266 0.185335815431 0.384401182584 -0.499670408538 0.558880145252 -0.0975134468246 -0.452053694979 0.0636175574362 -0.0420160947524
0.11637735375 0.14659428869 -0.61873037717 0.0339086170671 0.640132401917 -0.00274144740932 -0.154627510084 -0.021863103912 -0.602239838507 -0.119683122349 0.129516498004 -0.160855362968 -0.206351060762 -0.671485708914 0.0578372488468 -0.152235920841 -0.902627931004 -0.547918938326 -0.402337924675 0.376367647931 -0.08209477048 -0.0994072006439 0.167393353971 0.510139375379 -0.192987020273 -0.551808011614 0.219978121324 -0.139803475358 0.26078867311 -0.878398439916 -0.0612608372184
0.473197690285 0.611589232356 -0.60053483826 0.218390917132 -0.1101149339 -0.315212364393 0.0810367978867 0.0538249160872 0.551565966937 -0.100911646297 -0.203094571309 -0.432502479481 -0.240245352161 0.232884494286 -0.456137907096 0.0464602377538 -1.076087145 -0.615012325035 0.416809593468 1.3984753826 0.396508642038 0.426399597494 0.322312020964 0.0553950732334 -0.230847396863 -0.126060059112 0.0623890981214 -0.11435416198 0.24128604587 -0.370458411261 -0.0246991063701
-0.885012459659 -1.46159065432 -0.616623408151 0.665506443193 0.870985555946 -0.533969216653 -0.146278059231 -0.488524417629 -1.74438264048 -0.00400273039822 0.332340491651 0.0932367891501 -0.192813731267 -2.36166239155 1.19370685186 -0.166700705215 -0.883046297348 -0.307421494749 -1.8562034175 -0.582062301954 0.31289393899 0.0441496672627 0.922117328886 0.735574667398 0.938399959224 -0.749050070446 0.563149427 -0.145264949267 -0.568899074266 0.672115314403 0.0730977470515
0.491014240505 -0.189599605743 -0.829661407906 0.253517849586 -0.431792146482 -1.40087408071 -0.0777726816229 0.101837335096 0.123877033362 -0.0965556290874 0.0262715554705 -0.911299860909 -0.153451470927 -0.527781072789 0.24742024564 0.0164598391394 -1.0058208859 -0.555055503507 0.0664507851524 0.739702557267 0.100018234371 0.116629695765 -0.320270628781 0.825170340704 0.261860759297 -0.00804505498589 -0.692524931794 -0.0454215885261 -0.104715383243 -0.956290563577 -0.0483130039957
2.60048078516 1.63265698868 -1.12070784171 -0.530987342465 -1.81796811962 -1.72232896703 0.0120813928538 1.26156327153 3.7023101801 -0.213124636334 -0.841089951468 -1.61552014535 -0.441128146228 1.74386295756 -0.954598258851 0.0472180607386 -1.53787294245 -0.529100454858 2.9482930598 3.73952928138 0.43284565084 0.236684433862 -0.555016577618 -0.0564840760706 -0.068524089572 1.51120576832 -1.50294511502 0.17799291236 0.0238271284658 -1.86542102744 -0.0129003065436
0.986423325477 0.546781183811 -0.23859617812 0.76362177659 -1.84891241595 -0.919632251561 -0.141160780353 -0.0884488459799 0.310012734669 -0.134488300206 -0.31796457486 -0.748384576124 0.0636699183197 1.39348257268 -0.984090856131 -0.0891878105106 -0.946083234037 -0.561435017532 0.640550605187 -0.141052758504 -0.179136899266 1.00818916977 -1.00216249008 0.61880816984 0.418380100598 1.0529455134 -2.00391014812 -0.0110930170361 -0.328845522256 -1.91135576406 -0.0406152686012
0.150299072477 -0.483782808322 -0.368455357933 0.273215066302 -0.568716577033 -0.0536601159879 -0.148716399752 -0.91688463705 -1.38761583749 0.0148085964037 -0.200196945661 0.496865571295 -0.28345846577 -0.347465372805 0.724845469495 -0.0635254158415 -0.962877172467 -0.957486942588 -0.596641757662 -1.13788199303 0.0504675565662 0.0858453118032 -0.180491190325 0.418837053936 0.52909529044 -0.344211343113 0.339479526495 -0.191760712815 -0.32699460756 -0.0589238596382 0.0589129054317
-0.592464557819 -1.21639121825 -0.904784423734 -0.928832199741 1.80217776027 1.93150384417 -0.167684519652 -0.762367625221 -2.22920407223 0.171711527714 -0.0994110248995 2.75503273762 -0.671434090241 -1.65014308629 3.57179560105 0.00445178264555 -1.48527908933 -1.02637656467 -1.07575319835 -2.0798816795 0.307594405228 -0.191633823904 1.80350633912 -0.53913344857 0.313081143193 -0.878133046234 3.8044556783 -0.206172019157 -0.658662727739 2.4608980011 0.00687160351549
1.07955012407 -0.101411521324 -0.505581752645 0.0915251230118 -1.02785621339 -0.20460840456 -0.140322518135 -0.223160434761 0.682966579085 -0.0849627682937 -0.321021377728 0.0464011670552 0.0605302372696 0.676689022503 -1.08418019863 -0.16592761357 -0.745559291411 -0.17678243286 0.410355058743 0.350965252909 0.0324502930878 0.584560856682 -0.172431894305 -0.115609842748 0.579820977383 0.639899671715 -1.05917046894 -0.062407728489 -0.372209722913 -0.0497430204099 -0.020584718852
0.790917865116 -0.831876935853 -0.550125432214 -0.109830289227 -0.672718961775 -0.484325531534 -0.0071328474251 -0.639092150403 0.196968307378 0.0158173143639 -0.00496649603184 0.398522609155 -0.0670705703611 0.108995932153 -0.297161518658 -0.0300688654923 -0.687983708033 -0.903124498568 0.0171273437637 -0.00979475926664 -0.0674791352456 0.111466704195 -0.615132913614 0.0986733838827 0.463362024657 0.277261800458 -0.582177191619 -0.138754100444 -0.334290384101 0.123734846038 0.0873824856635
0.331059962561 -0.350172216595 -0.471408827338 -0.638763506982 0.242653749765 0.0485685482541 -0.152123242231 -0.295791685182 0.0715076583248 0.00532124295649 0.110964606704 1.20799020666 -0.395551595608 -0.906328595224 0.344232225908 -0.121239585471 -1.02482531893 -1.13036978666 0.289553013173 -0.678686042199 0.493017485293 -0.0696169805065 0.167090286423 0.220154842965 0.218154134378 0.430070538543 0.316361821286 -0.0453107682847 -0.316737708736 0.5717272415 -0.0797775466325
-0.190827733266 -0.255345021223 -0.851746975107 0.339459474173 -0.454682399086 0.306989771272 -0.102466900149 -0.125332558487 -0.0183868959515 -0.036540756465 -0.192550310986 0.0174016061944 0.330718326339 0.27108126783 -0.0087202255364 -0.0735757609466 -0.300810479948 -0.124898391828 -0.204849969216 0.314895560634 -0.445143694953 0.460742856837 0.273461880795 -0.377741519314 -0.189546265131 0.115096736989 0.0943072022966 -0.109015296138 -0.247470088607 0.217376084231 0.0076420726154
-0.180951866055 -0.695699306324 -0.822052661459 -0.208181516132 -0.0506218749963 -0.156265436296 -0.0689156395881 -0.286604816238 -0.0595735789024 -0.00854887950375 -0.0453454955077 -0.187058736733 0.0337936692871 -0.138705898939 -0.0228502848262 -0.192482104467 -0.718015809482 -1.04742413403 -0.39295208441 -0.0880066773038 -0.394819863842 -0.213725976402 -0.232346380555 -0.442832327643 -0.584436675216 0.0756711841702 -0.0123582933756 -0.205464777305 -0.153291484138 -0.237005238875 -0.0427182481368
-0.613053202691 -0.162112368557 -1.10440729766 -0.033571905277 0.553049365954 -0.0543696405319 -0.166297260534 -0.157838934878 -0.0990029690933 -0.0788508521389 0.0944633347693 0.0850534581155 -0.116062153259 -0.679671155659 -0.292276088349 -0.0569583243198 -1.16000072801 -1.09491788322 -0.330805270221 -0.872308578256 -0.31588043545 -0.09072211049 0.323156476281 -0.598740099232 -1.05202536651 -0.270681530486 0.11916235824 -0.0341702014671 0.409395903918 -0.516791709502 -0.0746444470058
-0.975925786737 -0.285593210169 -0.293363928005 0.0388172668362 -0.261180956687 0.780005588438 0.00967255096186 -0.00947757962824 0.0592863351964 -0.130316798962 -0.0523494242152 0.628833314391 0.200953566327 0.178009975743 -0.464683598058 -0.125881515824 -0.257713675295 0.0510028609701 -0.080668750885 0.452895306417 0.0363198226877 0.696292974699 0.122722011471 -0.437136103719 0.569446736592 0.204585815999 -0.0318407697163 -0.0281027814739 -0.165925893112 0.200768339298 -0.0382778625001
-0.808809295063 -0.72691796141 -0.281158598098 -0.447431597936 0.252390958155 0.119944992805 -0.0400625383963 -0.637912245644 0.195226805745 -0.152263183969 -0.0399921102794 0.122821923428 -0.131256755353 0.126463412516 -0.506163322733 -0.0551473842197 -0.420579751096 -0.818028300107 -0.295828344613 -0.250112612092 -0.149784082146 -0.163155702426 -0.425224315895 0.0287388013683 0.0470395863076 -0.342394542792 0.381477540513 -0.0501341698717 -0.391438482776 -0.368172440772 -0.080849541847
-1.27811054913 -0.898921415393 -0.87319764246 -0.607594199212 0.528324308152 0.171428843719 -0.200812528756 -0.635169409924 -0.170936632326 -0.10858427809 0.0688000816001 0.215821362606 -0.23421008421 -0.353213101456 -0.521761163322 -0.0197913646782 -0.950225506503 -0.979886477516 -0.511914681906 -0.943927296488 -0.217856363383 -0.502150197695 -0.464855421543 0.0305000045352 -0.201713844032 -1.00466872371 0.169629815304 -0.184031600413 -0.524190940591 -0.514508817158 0.0294850730608
-0.764070088952 0.0544538331749 0.11076028028 0.380354103669 0.212903891376 0.210196838718 -0.165446629445 0.521621784627 -0.119136544356 -0.0398601681439 0.114591470225 0.409789924666 -0.084959631533 0.483899542732 -0.355968820169 -0.0109778059306 -0.334894252097 -0.478919483307 0.120369192575 0.410702203564 0.0745718584169 0.508304756657 0.0256153386905 0.0771529940599 1.43042538786 0.248873541918 0.000376309072878 -0.00270550713692 -0.151615596479 -0.00200686026582 -0.0641266429667
-0.540952016765 -0.465726870622 0.0640580550187 0.259481550722 0.14195024685 -0.619128983049 -0.0671298137274 -0.158703951784 0.128855923472 -0.093702655266 -0.107668471944 -0.521467250662 0.00330480092673 0.429645782191 -0.383606681473 -0.0745290157254 -0.41193516045 -0.877397179939 0.197551761356 -0.195656309178 -0.0330743020282 -0.016394187552 -0.875865851891 0.56431989005 0.781184436319 -0.405865567936 0.0541966718895 -0.0684093854468 0.00706765530873 -0.659675894108 0.0504397175831
-1.15971902784 -0.51172069253 -0.292849465969 -0.319093238372 0.146086123557 -0.647048228413 -0.181598676055 -0.440428575741 -0.174314873557 -0.158425673799 0.0553161791879 -0.818970546167 -0.236816698706 0.738003973173 -0.905099501802 -0.0577099883166 -0.669350119484 -0.928819221416 -0.304181860015 -0.616414889824 0.533897118722 -0.552619967223 -1.20199177419 0.96524982174 0.778948739943 -0.760264364465 -0.35125033296 -0.200741306895 -0.520996602538 -0.529195320394 -0.0461336487745
-0.672735166523 0.496268011478 0.0546687039355 0.0314995790485 1.32165317553 0.565917505105 -0.101632791035 0.670131591205 -0.339648023939 -0.048135722208 0.0668305822515 0.318315003037 0.0338030127709 -0.198195317387 -0.180327803028 -0.0859612020235 -0.342745632205 0.0611643652409 -0.0904124515586 -0.676061755745 0.273585799033 0.0664564860262 -0.41595434446 -0.313485070355 0.942735456749 0.643798661455 -0.269491327639 -0.117503713761 0.279860597176 -0.326598548352 0.0459932696774
-0.344555002525 0.245715662157 -0.118769818614 0.16376759011 0.839978910263 -0.161178665198 -0.103257230184 0.312402196201 -0.0376730927626 -0.131877280295 -0.0597915889328 -0.140273656222 0.018769252579 0.291234068845 -0.152031719175 -0.0354415730234 -0.458609824813 -0.498630839141 -0.206706900523 -0.682747221338 0.257331532888 -0.22524822809 -0.936689748423 -0.513808276856 0.511353055433 0.182105418598 -0.366916862864 -0.0634819247132 0.738117832712 -0.852383126901 0.091815099267
-0.7177094283 0.155342436897 -0.470072278183 -0.0402798424102 0.470087298618 -0.00422655178826 0.0279840680428 0.622891863648 0.101024478829 -0.110507657929 -0.203520899597 -0.559536493046 0.0100535031946 0.514587781274 -0.221048644286 -0.0234909559191 -0.807817886726 -0.520137656704 -0.27727111543 -0.557383747827 0.79360987047 -0.459819994086 -0.645199341918 -0.446437442249 0.634756262425 -0.0477891595856 -0.305852670579 -0.150425578503 0.450046816726 -0.064186530896 0.0182906472239
-0.393763657163 0.197378049171 -0.508005141095 0.00431823784141 1.36071598036 -0.112499514025 -0.181098126847 0.212816930133 -0.988014630719 -0.106978927903 0.11124827773 -0.0673265260974 -0.0209006920579 -0.681375635441 0.0498643675836 -0.164710373051 -0.515827146158 0.317524185456 -0.61999484646 0.0486700323962 0.0086998659475 0.278020795539 -0.035971169346 -0.556386115863 0.178760999218 0.405736366441 0.133928998671 0.00802297709023 0.311139177563 0.422705427635 0.0234932620579
0.34699940005 -0.105203916797 -0.422376197437 -0.310326013895 0.610586167257 -0.515690107293 -0.0899509716478 0.00862965857962 -0.7056626791 -0.0994228835494 0.0168789314388 -0.330717518009 -0.121591953411 -0.255660655954 -0.0688401849054 -0.107262419723 -0.812795277334 -0.303526591711 -0.403764605441 0.447299116745 -0.107545107273 -0.213395987187 -0.415344315654 -0.319025036612 -0.34890703103 0.329977176649 0.0897501434402 0.0232746953174 0.788295275681 -0.206247649457 -0.0624193187969
0.325401188808 0.287795985587 -0.7301425287 0.0655636680195 -0.143225932758 -0.52634996465 0.019078930223 0.462237171696 0.536388905957 -0.0707863042956 -0.345895417381 -0.809206955548 -0.171654556615 0.000692758236798 -0.656022221519 0.0116942518884 -0.978268204287 0.00921792122371 0.0912502508916 1.156954957 0.26311795289 0.176479188228 -0.0516603150934 -0.397679803209 -0.370044006972 0.265259335686 -0.360329214716 -0.0214497839961 0.970537052845 0.0200450785307 0.0739284280282
-0.513938403839 -1.11703487822 -0.388876130677 0.716271436667 0.563132842682 -0.597677807661 -0.145989439104 -0.750847964464 -1.74748145627 -0.152686056665 0.446387504962 -0.0285580059123 -0.207805026193 -2.77964397891 1.23224062599 -0.160601117998 -0.964775389989 -0.0293318958893 -1.96497000943 -0.286194844931 0.260879535845 0.448123377389 0.68364268284 -0.438251236373 0.568547784105 -0.30475877553 0.97395743803 -0.0730927100837 -0.544022094161 1.10661367956 0.0899662169916
1.08648009374 -0.230404634268 -0.555763452607 -0.0561672449281 -0.924944873842 -1.41760721717 -0.00412939999556 -0.155290574382 0.452635947013 -0.0911374802475 -0.0356623006814 -1.00730247646 -0.283582167718 -1.09659734658 0.494068000968 -0.106148489845 -0.802806654514 -0.744602854269 0.00734918998275 1.59058843676 0.267056697954 -0.342412903363 -0.774807769515 -0.276564931474 0.0844245375493 0.647868902169 -0.210505833517 -0.00683403801089 -0.434019156231 -0.367415517111 0.0665054201069
2.80732010542 1.32982212273 -1.05705007451 -0.768926072077 -2.25328178407 -1.40829683259 0.115553227064 1.26805282128 4.31798311211 -0.146301033394 -0.901318079153 -1.7691049948 -0.717678670407 1.08840312571 -0.807009454336 -0.0211522700885 -1.38627476269 -1.13640582524 2.89407874011 4.19269428047 0.613171464186 -0.644996312698 -1.15016624065 -0.419151970012 -0.224644651082 1.98518750005 -1.12538433637 0.164415483983 -0.815305099681 -0.759400943578 0.0856926633332
0.879700637123 0.167237344028 0.757012569279 0.90522229588 -1.92668168792 -1.08858458789 -0.0308710472249 -0.141990090521 0.784927532185 -0.126149488329 -0.287306677697 -0.992492191007 0.0719643740147 1.59568877478 -1.93797068762 -0.0959209236914 -0.132822771767 -1.50929047754 1.0045462901 0.0863913115617 -0.240810473546 0.602042578465 -1.33483647525 0.663457706116 -0.134691654677 1.4353165831 -2.00518153982 -0.0321112674459 0.120567430388 -2.11557349867 0.0876925247624
0.418104264301 -0.816480149525 0.324755841831 0.404836921137 -0.514814115706 -0.112547678044 -0.089074269764 -0.63564900346 -0.717080112719 0.0919944025301 -0.0988295472163 0.207379773193 -0.353272581523 0.126945051788 -0.019606916923 -0.0701783550638 -0.301265725273 -1.89255248858 -0.350512453391 -0.841928395457 -0.163989893319 -0.29352116072 -0.288917019827 0.173014372516 0.0122499244626 0.0139145885249 0.682685985716 -0.172789855378 0.180085932167 -0.00445568965569 -0.0934398610369
-0.641439832327 -1.86194029161 -0.176544868404 -0.804242951404 2.10716026219 2.25564487857 -0.0557653530898 -0.647888737265 -2.04975577524 0.12365321781 -0.210301047653 2.61954401251 -0.892484466208 -1.25659722667 2.95353532763 -0.073429906758 -0.651886979538 -2.16194851722 -1.20100561958 -2.01189809997 0.410970269019 -1.13349373717 1.6699940383 0.085441489243 0.152561104017 -0.264139681312 4.3522582957 -0.192002121423 -0.367716336406 3.40739154539 0.0239243975042
0.576531921978 -0.481700912348 0.273212770122 0.52469134014 -0.905515362942 -0.0713895644093 -0.0188987230702 -0.163959264842 0.221135434155 -0.123610138896 0.166772972394 -0.343718851306 0.401120249884 0.637745334997 -0.971804002643 -0.0455326951271 -0.567416148581 -0.153130092129 0.233827311224 -0.256213704268 -0.959242752631 0.812943874308 -0.306971019017 -0.093106575219 -0.7187041423 0.28755245518 -0.779615563267 -0.0230996211456 0.49992087774 -0.690420373788 -0.0485917022209
0.44271255046 -0.665573739663 0.371455244494 0.419947940542 -0.856139945581 -0.479443068092 -0.0313512533384 -0.379023777239 -0.209108525487 -0.0669250741779 0.28952790849 -0.166298454757 0.287181900655 -0.0558676609196 -0.627752822178 -0.0240578963982 -0.195156186254 -0.372749756153 -0.0686639544393 -0.367519386298 -0.673684690674 0.377445313554 -0.352129964066 0.266191922999 -0.596774636301 -0.247993893503 -0.164628792523 -0.118734128544 0.576154652476 -0.196412289304 0.0498816488679
0.00484733486513 -0.428051665857 0.11029966763 -0.585688145915 0.283212310096 0.340092448101 -0.125227306044 -0.164107140744 -0.246351385279 0.0123473271776 -0.076518779819 0.92021210223 -0.239123320132 -0.943524924377 0.376267840716 -0.035254322005 -0.347403991935 -0.461795703713 -0.0288886275216 -1.14794697075 0.0237608774539 0.103184434952 0.588173718304 1.00130793614 -0.29043026542 0.390023925836 1.38016345362 -0.138954767601 0.255711600542 1.27993194879 -0.00301518081335
-0.157193392188 -0.735919700605 0.132320798109 -0.0412221837761 -0.172746186445 0.120303647355 -0.0972512985179 -0.234939529417 -0.267531793426 0.0218010196985 0.163136226731 -0.791567933681 0.233635535273 0.217526893844 0.00169900408097 -0.10057915668 -0.320151369624 -0.0302556681472 -0.487772970278 0.12536188385 -0.111468361063 0.486105355528 -0.103096040469 -0.524774907732 -0.269567763932 -0.492457692317 0.0606825586719 -0.047516716379 0.143408193031 -0.545087686512 0.0653096097842
-0.0178132123114 -0.896059850573 0.163062413145 -0.16527507335 -0.514928182961 -0.50769606195 -0.067466498302 -0.402198721203 -0.274614600942 -0.122824221719 0.235266865712 -0.924746065832 0.102139979408 -0.192378922234 -0.40802865592 -0.0628571129429 -0.249222527839 -0.76061634201 -0.306776944163 -0.149213872138 0.025205737158 0.172063535985 -0.644387470187 0.0776437155594 0.0838669836372 -0.223001971574 -0.0355503040112 -0.158953095029 0.0804502045998 -0.361740785052 0.00736155834609
-0.486183072695 -0.719596235412 -0.408967805883 -0.709519491851 0.0162724563403 -0.135525583846 -0.117682259434 -0.176962094914 -0.181487256849 -0.021878239767 0.0120175743337 -0.29173064649 -0.0651006555941 -0.70716359438 -0.0913151573231 -0.045975245291 -0.818813763042 -0.703151022378 -0.344376684667 -0.753912234435 0.284161856108 0.166025850374 0.171194638371 0.0814970081881 0.193359479809 0.0243835406804 0.325559328611 -0.112701141972 0.171321165083 0.0669573216419 0.0896668216519
-1.06670100587 -0.674073722599 0.0645457101198 0.122907036629 -0.30157971597 0.788923996227 -0.090722469012 0.430417452677 0.32490397218 -0.08725562698 0.0219549194658 0.473276357398 -0.0480933731612 -0.331301307605 -0.145680601953 -0.0949426544872 -0.451699002854 -0.447138430506 -0.0756411729571 -0.012106457692 -0.179843183727 0.66126660432 -0.111487519865 -0.829951229241 -0.719949723783 0.386552024077 -0.248585449491 -0.105275308947 -0.448607024877 0.338506695799 0.0401511055583
-0.728779313028 -0.896126995772 -0.0100141406629 0.0312950174976 -0.315038422373 0.0813416206435 -0.141809040383 -0.250588240477 0.732664807905 -0.15466190672 0.124077447744 -0.0491052372523 -0.0635601820533 -0.573040438895 -0.636795809425 -0.13258880995 -0.28311210313 -1.25761719949 -0.0493824630258 -0.251812994787 -0.294208801294 0.166754495929 -0.417797331181 -0.204576345249 -0.604271741831 -0.191500494957 -0.00218091363213 -0.116243146874 -0.447271992109 -0.105818051499 0.070943181599
-0.822170819572 -0.642877657098 -0.602188033744 -0.38231721917 -0.527266359477 0.120426581769 -0.170757513937 -0.278196912472 0.491347080329 -0.0525149551592 -0.0133245310989 0.0137684903773 -0.16157122552 -0.52797887607 -0.691284051301 -0.134934172962 -0.867294189363 -1.05268865629 0.0456639875719 -0.62769650524 0.0357627197712 -0.142348246825 -0.239379892799 -0.057175850478 -0.361590276817 -0.0687808632569 -0.550425162134 -0.0603413011234 -0.164737910514 0.0199783518966 -0.056660852634
-0.686841931081 -0.533938523153 0.127388803701 0.58836754011 0.0239477868127 0.417088294666 0.0148124220472 0.358874648022 -0.161704935158 -0.045980929006 0.112211896227 0.207456276632 0.00161538953191 -0.120201036373 -0.0659089484879 0.0225294999819 -0.0826516053566 -0.376427845998 -0.264302058037 -0.290674719727 -0.241363614367 0.170571429955 -0.102331324115 -0.35751017769 -0.178513745345 0.374944123857 -0.182261685766 -0.0972626995206 0.0836346925578 0.429897594073 0.0787916664672
-0.705093327006 -0.595457049631 0.141345405748 0.405337367296 -0.0478256736851 -0.250793495726 -0.144254929509 -0.215127033611 0.138920005088 -0.160270759067 0.153058924895 -0.491271469445 0.0480207274355 -0.421813971628 -0.261216539247 -0.158914553983 -0.0513948743695 -0.897988892363 -0.0488224888757 -0.740032774455 -0.362146330581 -0.0272396139751 -0.640463558016 0.281058619593 -0.112097759923 -0.207942891531 -0.0558032231829 -0.116678307333 0.173785564563 -0.273832528897 -0.0650847516692
-1.07308008149 -0.678184285461 -0.475653394525 -0.359237003426 -0.452328296982 -0.109141279101 -0.0295365169705 -0.348781510471 -0.0497595298412 0.00204025456881 -0.0815040256501 -0.691837072782 -0.188140013539 0.0138090600911 -0.313755542357 -0.123371582229 -0.567609419578 -0.82296205957 -0.239021433542 -0.920637501008 0.165270029398 -0.629846687304 -0.48374782658 0.503809990408 0.150485109796 -0.324340415924 -0.0513154742139 -0.124287113148 -0.231541193686 0.178274634605 0.0313397570193
0.0199082849919 -0.193180762086 0.079705991491 0.217574004339 0.894116564261 0.61783992144 -0.0164086296349 0.642124609105 -0.472945356876 -0.12456998614 0.205290487563 0.406994301797 0.0109542396679 0.188296995047 -0.143707142495 -0.147932521522 -0.0189860027843 -0.407477414862 -0.189254085142 -0.29969322843 -0.523369890382 0.0225126581794 -0.332278191226 -0.0918768688067 -0.682225150314 -0.161026250653 -0.306963059823 -0.0459882555404 0.186383673101 -0.321128891186 0.0635035899987
0.104158710907 -0.142485400183 -0.080346687731 -0.13443544109 0.257936736679 -0.167837302717 -0.0458287076469 0.44035302384 0.102417649768 -0.12686767273 0.171341704822 -0.0219310622512 -0.0998284597788 0.456910921824 -0.169505540583 -0.0320245534197 -0.265114964776 -0.964852470244 0.00223384831609 -0.266549998052 -0.425875684285 -0.142146786784 -0.767789908784 -0.429676137388 -0.710815780386 -0.0199382614891 -0.269590095642 -0.100485646227 0.324061902504 -0.777870436588 0.00609688869372
-0.240891381598 -0.218372949077 -0.609839577686 -0.475408831542 -0.22610635776 0.172393185684 -0.126573940465 0.742961634113 0.114193886009 -0.116231905506 -0.23548701096 -0.110506723839 -0.172273451147 0.61853000792 -0.40624846798 -0.145816661111 -0.302311869322 -0.955775992418 0.0546304124009 -0.0927393141105 0.520955934993 -0.517152589386 -0.51476821374 0.291389339775 -0.0909532249511 0.700689103714 -0.339699597709 -0.00339774346678 -0.0291370292454 -0.0465647048442 0.0300716790395
-0.186738935606 -0.201319416654 0.400850976719 -0.104593258869 1.23920137327 0.00754736763421 -0.0233471666319 0.193440850814 -1.04021333614 -0.165388582803 0.239784947902 0.287540879273 -0.00231453395067 -0.895654673489 0.0818093442431 -0.070479067244 0.0455431426361 -0.339899654164 -0.387454790134 0.0983817088362 0.287827739168 -0.40267003796 -0.273438979122 0.110051449805 -0.205446801961 0.263047812918 -0.262349933103 -0.117024170883 -0.532302322118 0.102504420334 -0.0634455767235
-0.0211008877012 -0.0192151358581 0.100326140067 -0.0309022987704 0.596020298978 -0.403635266562 -0.117756119173 -0.154812712781 -0.441394852906 -0.209587948285 0.0861663582582 0.0504556445363 0.195416927524 -0.413710246107 -0.32784294322 -0.00739603896208 -0.0769944484207 -0.636841168998 0.0892358308553 0.39963356615 0.325445774415 -0.662055228796 -0.246903878592 -0.172093829506 -0.20137387061 0.426059969609 -0.249679332127 -0.0711120648997 0.151655361529 -0.413139211396 -0.0729705377207
0.24157020262 0.547672162869 -0.388795681442 0.0304884653567 0.0876238111097 -0.409613604121 0.00494778567028 0.205744192332 0.853896904744 -0.162306541214 -0.333357276813 -0.686275299492 0.0255402265456 0.218988913304 -1.10687384214 -0.132819161958 -0.145220563378 -0.394446346886 0.739100503608 1.24983181876 0.966318041076 -0.407556539478 0.155179130985 -0.0163628413505 -0.0289501377361 1.18250756623 -0.584906172329 0.0233136817904 0.230321105383 0.322653677004 0.0126439213823
-0.944136683245 -0.986380786324 0.372996121698 0.976852993651 1.22368679612 -0.570072114409 -0.123566775132 -0.672539195903 -2.30390777046 -0.0564536923341 0.721178501199 0.460244348116 0.0986388393686 -2.46989357801 1.47916101223 -0.034101758258 -0.139103235163 0.141312873027 -1.79455191306 -0.823609921125 -0.0950921347548 0.317011561156 0.335341688869 -0.750114912052 -0.00259633568404 -1.36881418388 1.19612410908 -0.123609021079 -0.15319019376 0.831057236968 -0.0777063259487
0.235603610089 0.116957423272 0.312812113379 0.2018792443 -0.137154226607 -1.00914596141 -0.0858771578274 -0.310140967704 0.164248814387 -0.0673160700093 0.0982782965852 -0.525734719609 -0.0116554262087 -0.939347464339 0.298991704684 -0.045870228924 -0.023016487083 -0.599609182714 0.356120225259 0.981844494141 0.0160157406009 -0.268777494159 -0.691979129499 -0.608813462446 -0.122163800442 -0.192812564015 -0.239832894436 -0.139046539261 -0.0732935655669 -0.423326580561 0.0623773683712
1.834950456 1.4484204395 -0.33437148238 -1.1259425738 -1.1510542602 -1.16208723461 0.158173971705 0.89961008718 3.96481458588 -0.0552996891649 -0.843838804399 -1.53431712036 -0.38978273649 1.3576324134 -1.19895935855 -0.0372322820092 -0.523358960993 -1.16880218127 3.25951672786 3.89527426749 0.669944091416 -1.14000935827 -0.874503010064 -0.0183678357435 -0.147383637814 2.12217843549 -1.27459632253 -0.0349819495566 -0.866734992026 -0.349391109636 -0.0082519765275
0.943365851777 0.864060672211 0.546768830344 1.33148888779 -2.18603108657 -0.848648618731 -0.12711682724 -0.323738790013 1.19235921112 -0.139598902168 -0.200901223989 -0.74957505508 0.523720239867 1.86554549219 -1.47676478858 -0.177027460849 0.0454771046209 -0.693054866843 1.57158996233 0.600333540863 -0.00458022730554 0.748961142495 -0.910945047776 -1.62445384363 -0.386064847853 0.0752506680048 -2.73240422427 -0.0770779663104 0.770600341854 -3.07573996835 -0.0762139408316
0.561170757187 -0.780575475331 0.415281444358 0.238162511613 -0.558085539264 0.195396977541 -0.072976700075 -0.780303471433 -0.194091134984 -0.0196063662947 -0.14986546 0.5392611725 -0.271101531336 0.489084584981 0.479257202269 -0.0577865030235 0.134299295797 -1.48594131807 0.0820732961282 -0.0405027963699 0.147850503016 -0.490726096126 -0.350337853415 -1.13100362678 0.157939016308 -0.978270174005 -0.131219213798 -0.149961044708 0.153819269308 -0.314011500241 -0.00286377043934
-0.658139662128 -2.02885680505 0.166159770871 -1.36998132058 2.21574630091 2.30908227093 -0.145739871185 -1.06777171074 -1.69802310115 0.126274229317 -0.64713612196 2.74071600834 -1.14101548242 -1.15469670432 3.58175829004 -0.165505708846 0.0987050428479 -2.23206331295 -1.10560163015 -1.44393224597 1.30861458613 -1.84627469919 1.24468980016 0.636038187052 1.30266231636 0.0382934380848 3.95476219419 -0.13549773268 -0.91598295227 4.26738330918 -0.0188689959021
0.610691423955 -0.0706975208254 0.404519156407 0.645233208318 -0.902995830201 0.442154209691 0.000268240578787 -0.533961821651 0.142632234024 -0.132305251783 0.376196388742 0.437600059655 0.461325654146 0.77359647205 -0.575696055685 -0.102668802294 -0.149277391617 -0.0714218514423 0.335270361674 -0.306272285232 -0.386517387173 0.125650705056 -0.0676766055461 -1.14910250005 0.583775012921 -0.0881147454696 -1.01202021366 0.0295682328934 0.291595125478 -0.883421237409 -0.0237762754888
0.749998707655 -0.27721695665 0.330193576086 0.239001065937 -0.648497712739 -0.0308247325148 -0.0795075472111 -0.851417057971 0.070818766921 0.0232576181387 0.0627508752475 0.498795740277 0.218726399818 0.123491048444 -0.431437079573 -0.0645561446188 -0.140134669975 -0.556835567636 0.113859063243 -0.31826452774 -0.407499828927 -0.297412330141 -0.114227706153 -0.840273471623 0.66991052195 -0.326148915411 -0.443983441126 -0.00967917283702 0.18424418045 -0.257300857916 -0.0589394612805
0.0823673061503 -0.338373573214 0.384038578197 -0.682185326128 0.712875409375 0.609174590046 -0.0703307119442 -0.59042113624 -0.453537446954 0.0182886101743 -0.25058284028 1.20682909176 -0.190467346719 -0.943791552448 0.560206325883 -0.112413235978 0.0347800170416 -0.83679830298 0.188561422892 -0.923514017624 0.403606143138 -1.09873478002 0.858185434477 0.844808798524 1.63495545707 1.0674493096 0.979343329457 -0.0482580769949 -0.320260662009 2.14192562999 0.0924315773961
-0.0469896816384 -0.488331721409 0.0861541293924 0.885853398087 0.0388404900728 0.520345404156 -0.0555271019218 -0.461233945334 -0.374035815166 -0.117759901502 0.194807249604 0.220243132849 0.548659256958 -0.158396884952 0.410484552529 -0.143287416589 -0.116803016014 -0.332772006934 -0.691926909814 -0.170199279393 -0.143596302721 0.849993243048 0.0887642866114 -0.914930309307 0.214419078155 -0.698747143306 0.623278027686 -0.0233753061213 -0.388321388796 0.166326029445 0.0427001010692
0.312620417713 -0.509702400164 0.237849413381 0.274492213777 -0.134986240304 -0.180845260336 -0.00411369282963 -0.444052881249 0.121722504493 -0.131422277146 0.0877121818167 -0.0297279165266 0.289931661838 -0.180277304169 -0.00401502254346 -0.00128643102034 0.038131708937 -0.605869189435 -0.393650436128 -0.331862910309 -0.297764338197 0.544409982279 -0.265420851742 -0.467189815848 0.645794214917 -0.370866797643 0.21724520333 -0.124350458197 -0.684140136437 0.115793711686 0.0217110803741
0.237455966615 -0.146653876991 0.365491015955 -0.776436238913 0.0654054384843 -0.171142079622 -0.129534394533 0.00902686016586 0.272720785041 -0.0143053721265 -0.359545180915 0.129282856504 0.0956668749896 -0.657189288138 -0.058422881616 -0.109208179234 -0.150747878738 -0.660234498606 0.0707733744408 -0.3575847683 0.418026046389 -0.194763093532 0.36629924927 1.0604857481 1.54345683756 1.09220302181 -0.0390698003775 -0.0412613567177 -0.868153384352 1.1360826594 0.0630161318254
-0.901164915785 0.276811858135 0.00169272824287 0.637180721916 -0.241477673986 0.337197373007 -0.0732947575226 0.490682913597 0.478657250915 -0.10224975006 0.00412208521667 0.155256054086 0.384601301391 -0.74769177568 -0.655794851492 0.0044401482151 0.0768513776728 -0.581050345684 0.0231735427169 0.194309029512 -0.0985802394436 0.438412586837 0.0402565111543 -1.20977743102 -0.52355066153 -0.402131935495 -0.0869712160119 -0.0712859494729 -0.0650028041949 0.292371548717 -0.00346726497911
-0.879484666322 -0.347880249811 0.202239891527 0.183256254576 -0.2826117575 -0.181900381821 -0.0734741658469 -0.181966553389 0.748488553576 -0.124967011285 0.0751143923533 -0.195644103575 0.210410239797 -0.995073397734 -1.00318425767 -0.133164176841 0.296790611275 -0.952815260179 -0.0287671864914 -0.390826334301 -0.210282580295 0.102533099424 -0.232004660262 -0.644464848269 -0.0159640977616 -0.602781959159 -0.235855657952 -0.0852129847451 -0.212705516627 -0.0762469490941 -0.0653802626767
-0.731619524257 0.073576201004 0.108664049803 -1.07242709907 -0.285659459697 -0.265212957645 -0.0691510730801 -0.137709577872 1.12637499696 -0.00662077093964 -0.426193143353 -0.276444192847 -0.00903220528824 -0.576232593801 -1.16159827879 -0.00937331432806 0.198527885597 -0.961097861482 0.353507431074 -0.0896642945875 0.433265345616 -0.593507223991 0.0439311100462 0.252890225634 1.12153036908 0.448832398178 -0.908302036389 -0.0064753682909 -0.389084714112 0.523997449107 0.0679489288865
-0.776899469514 0.365686597835 -0.111580769389 0.846148658088 0.000199126319519 0.3899131784 -0.120629244172 0.786745929275 -0.489898021999 -0.106050608573 0.17370725445 0.175471033848 0.689840232906 -0.611211434324 -0.468922841658 0.0343489855989 0.00639119384146 0.513504547695 -0.025963962163 0.282298037621 -0.26625653364 0.0872402803602 0.0521229383021 -1.7049984922 -0.279719767069 -0.345050170185 -0.291220812118 0.030953703264 0.63579983612 -0.0635103117441 -0.0625112719486
-0.649241367193 0.284161453165 0.151722892351 0.228504640895 -0.276936263141 -0.418366913789 -0.00624687114949 0.243957778392 0.287116769563 -0.113244569481 0.151116391773 -0.506919468069 0.431329872823 -0.377823494213 -0.479176766716 0.0179089048048 0.342887731459 0.0384464889806 0.204372087187 -0.380090865456 -0.18271645582 -0.0521751866867 -0.782860131106 -1.02118291196 0.0312515954388 -0.161719322926 -0.2715089815 0.0462621946153 0.26681868564 -0.488210864414 0.0257216129277
-0.759274918606 0.564254575975 0.272828557182 -0.625644310628 -0.67077804055 -0.29959631089 -0.0601287922372 0.388427461167 0.499438202235 -0.00940930603352 -0.407541735192 -1.04094899406 0.255958661903 0.136545064214 -1.00584316892 -0.00420394701767 0.63642634041 0.0475656138188 0.451935279194 -0.183979726429 0.454944392382 -0.770980500222 -0.461679145448 -0.158775023994 1.14701770894 0.991240990678 -0.356057357615 -0.162717164978 0.0481755924924 0.251891067875 0.0158484431262
-0.178591728969 0.0856616208124 0.229226247987 0.953884152729 0.636898462121 0.776124724943 -0.0317642056534 -0.259087496746 -1.03963229902 -0.0641859162591 0.496901987096 0.495533678438 0.609937975812 0.40875131972 0.304301013039 0.0218859005052 -0.296616304327 0.596829060869 -0.665207156214 -0.445179859082 -0.344214131129 -0.252807834661 -0.00780482751204 -1.19221556057 -0.192375890916 -1.18164047044 0.251238242821 -0.0311954716042 0.147245161681 -0.187800566725 0.048543476959
0.234541255219 0.0554209422602 0.223035922099 0.173015799809 0.213899788097 0.126492518797 -0.144404798221 -0.37148091383 -0.389557619744 -0.121218358636 0.2692926207 0.258610207007 0.396402320591 0.797424196995 0.462356942908 -0.0735650953795 -0.0352187367035 -0.015781079174 -0.578233396455 -0.498324755263 -0.422945900478 -0.568906948581 -0.479538275535 -0.873305758891 0.0414968352228 -0.339742160806 0.350702744484 -0.104699246828 -0.250483442609 -0.514722134689 -0.0167197031452
-0.0733630501042 0.613294204667 0.226417735945 -0.846077434592 -0.520818063211 -0.0758161032433 0.043379027558 0.168438969264 0.160802274039 -0.103148621618 -0.393560466988 -0.403509224134 0.0116861223702 1.29807013506 -0.206066878128 -0.136361393782 0.30387845745 -0.374575049251 0.289781147249 -0.189015673355 0.686205657009 -1.17790300942 -0.414472548494 0.481932954423 1.36360289199 1.69327272449 0.0273483537622 -0.054984238481 -0.459611303117 0.462610360891 0.0117211764787
-0.0982801528056 0.152614197372 0.448511144258 0.9413521812 0.655879283405 -0.0955090865004 -0.104168130035 0.313315436871 -1.26413970364 -0.0504309906379 0.805380595589 0.17629097066 0.424524606657 -0.560374103772 0.417893587416 -0.0380415874848 -0.153727040347 0.24455679378 -0.720777455636 0.0588996164143 -0.303981182177 -0.161652349531 0.480045398024 -1.49572113817 -0.00962282516932 -0.711527779053 0.141735994856 0.0429630295148 0.323698539793 -0.208947380922 0.0645585511421
0.0808420062559 -0.0986716859058 0.546798413842 0.441077667966 0.123581562688 -0.463949638211 -0.0843974756472 -0.0587736705242 -0.562203520168 -0.212118737059 0.378470184811 -0.238976786697 0.324351185588 -0.299961170806 0.0937590640881 0.0186814845432 0.0245023018147 -0.346289362064 -0.236693276579 0.0894696244929 -0.0736174754736 -0.334742293371 0.00509640093675 -1.22639554137 0.340599709436 0.0289246982401 0.0561928450571 -0.0531312624544 0.424981924412 -0.30376888905 -0.0380905374205
0.350568438887 0.621001104138 0.426983988669 -0.527551439822 -0.611883655504 -0.790903400618 0.0745774689215 0.33303705276 0.970757795317 -0.180416161657 -0.568735393679 -0.883371751127 -0.103613713063 0.663959308905 -0.793780082684 0.0154175825793 0.5361516847 -0.616189008102 1.00110770773 1.18315542976 0.930559654771 -0.93878258279 0.0166702432563 0.626378614183 1.2936898401 2.69025120104 -0.751929064287 -0.0189415136272 0.148757643491 0.676690893962 0.0359650526122
-0.673480396163 -0.766955636368 0.323314539547 1.35333405177 1.20772498686 -0.448811372824 -0.206883357718 -0.276628797101 -2.40263955821 -0.108096050278 0.938612686396 0.270904909002 0.431874736206 -2.0352897489 1.66659663772 -0.0291213444473 -0.285485068511 0.462656296828 -1.73881307926 -0.944725031536 -0.55519699416 0.463337190497 1.23427031452 -2.35425775995 -0.323262115406 -2.84291376333 0.904460521706 -0.162271946216 0.625783259864 0.340130053182 -0.0510405130283
0.272995377006 -0.0383417661146 0.752201961357 0.497823309564 -0.169620415045 -1.1049930488 -0.0486381919813 -0.273137154913 0.225646677532 -0.217313290833 0.293328374918 -0.645628113658 0.19572503204 -0.960497181602 0.438002988635 0.00659535074703 0.314298553182 -0.300360589938 0.219797843304 0.68665075386 -0.0404047814027 0.13373222637 -0.234338148914 -1.18279810918 0.109955576761 -0.709779366197 -0.196632520633 -0.0440886047074 0.242999097808 -0.12143990591 -0.0571485543973
1.8617371401 1.3884504405 0.46967806657 -1.45742316488 -1.59769079612 -1.54923716484 0.0165665484267 0.848905257907 3.96810745994 -0.0926912730791 -1.05492305141 -1.79386311356 -0.516022100479 1.35093375529 -0.726263059974 -0.0436945749717 0.291534829338 -1.16305294159 3.21649990444 3.6619763543 1.08856911835 -1.10773948573 -0.678985386051 1.30890071448 0.896338887177 3.1481384419 -1.60795695687 0.0335504976155 -0.704693671416 0.139766136432 -0.055941474148
0.871490452289 1.48393454076 0.408074197289 2.41883894049 -2.75762688273 -0.406306427392 -0.0396876139152 -0.633471766018 0.820016303283 -0.0789435791127 -0.0132202733824 0.0698088246395 0.740687607099 2.29289403414 -0.652425577823 -0.0798813841391 0.576287694198 -0.131529969676 0.97500062039 -0.135162003306 -0.0907534256648 0.865294617996 -0.316010608363 -3.10056607252 -0.323524929909 -1.3117196456 -2.98286289852 -0.0322058179849 1.49374058821 -3.33618549141 -0.0562907022662
0.285751757116 -0.874929948495 0.801710125359 0.258795886292 -0.814685308688 0.520678290324 -0.050115090017 -1.09127943269 -0.854499016463 0.0831562632223 -0.303771947289 0.873215176225 -0.0316107634851 0.22904533514 1.33718570705 -0.0283319181624 1.06882370054 -1.39938630506 -0.626504094252 -0.651044257892 0.84440385898 -1.22355646564 -0.33112266787 -1.18712389554 1.242742852 -1.00742767623 0.191302711342 -0.190820807591 -0.216114029213 0.808979564741 0.0166111000505
-1.28397118994 -2.69978571176 1.34838726745 -2.02626304029 2.14906810336 2.32081616896 -0.0716363363926 -1.78838645432 -2.44566688208 0.326634408186 -0.880574358591 2.84678430849 -1.1620269796 -2.18883811465 3.86393209308 -0.119364597684 2.0061265161 -2.47202071753 -1.97889926743 -2.32638969835 2.9342901866 -3.11100502573 0.586666080365 2.95545648898 3.98219803523 1.67844462377 4.19702650186 -0.267202795903 -2.30672109892 6.76723718257 0.0578603625879
0.864184455639 1.26981085065 0.155652178029 1.51962701787 -1.63794156849 0.263153899632 -0.00611116618446 -0.739798848684 0.718926622365 -0.004846985917 0.336274757767 0.570802585931 1.03998449078 1.73515349637 -0.741833157757 -0.103216997383 0.123690541128 0.484448481909 0.338535837258 0.3829396225 -0.632411800393 -0.000357220368917 0.279661243389 -2.68816675566 -0.719430914394 -1.10498057277 -2.04428891877 -0.112315782725 0.777548764572 -3.0128924935 -0.0384102151013
0.704250342829 -0.145957642183 0.588927965416 0.341502343142 -0.512524035588 0.129254413081 -0.038263468581 -1.08615926344 0.117550116034 0.0593204846769 -0.0219291273071 0.639662608552 0.384243961976 0.566354875863 0.21677550936 -0.0398763453207 0.512134148788 -0.422837499777 -0.303033726215 0.0666549019637 0.209408973483 -1.26921453542 -0.30340633431 -0.754204662648 0.728212063165 -0.44070913961 -0.772934660866 -0.152193717549 -0.451127543706 -0.670139071228 -0.0896205211282
-0.570579934562 -0.643288776874 1.44895629854 -1.1162826307 1.08426955338 0.712350406876 -0.0717529163711 -1.22921448283 -1.17697284345 0.125245577049 -0.792587692734 1.00260682387 -0.174306693495 -1.48663204953 0.556098896265 -0.172863869831 1.76627169601 -0.963777969 -0.903551225112 -1.00878328232 2.01307954864 -2.49147491483 -0.12703148021 3.29323170077 3.51584322081 2.47869031393 1.18214410742 -0.155684870299 -1.7826642175 3.44139941603 0.0420572060727
0.212550725116 0.691453826541 -0.22641086126 1.77950106956 0.0262428798702 0.603066135368 0.00118018315082 -0.164202293816 0.201495683146 -0.176063284672 0.450180337793 0.350729203199 1.18376396064 0.818737353866 0.390730426588 -0.101559703225 0.0931225559449 0.602859920355 -0.281553174214 -0.0223367835945 -1.0977154946 0.0938383097655 0.699239399709 -2.58226530109 -1.15426378814 -1.41831603623 -0.327382920956 -0.084058382892 1.06961865939 -1.99677879593 0.0197829178778
0.174552789589 -0.539140737034 0.548855869999 0.551320843304 0.0528547875944 0.062910347787 -0.0446557754539 -0.713984965427 0.119249850417 0.0478033677421 -0.163341511357 -0.0024230254966 0.555684798736 0.16190510162 0.218046522977 -0.157923451055 0.929566892725 -0.407979729033 -0.386662767452 -0.736048472217 -0.252241924148 -0.924448382892 -0.381965099986 -0.419396152949 0.740853407472 0.0902903841263 -0.0493155765201 -0.173476221024 -0.377391920113 -0.221837621651 0.0469065121304
-0.689109603231 -0.891560243269 1.493673342 -0.899063954581 0.469607280988 0.0218269989814 -0.179129060838 -0.572463619844 -0.949447730376 0.12810562655 -0.739324545086 -0.215909896012 0.00335219285239 -1.38255533623 -0.296930284977 -0.226813194785 2.07999163123 -0.741687408808 -0.895184306263 -1.26941987608 1.60690173994 -1.94511142459 -0.408954160185 3.7954524374 3.72560945742 3.11226701612 0.147607916562 -0.161661562783 -1.27855388065 3.04798653807 0.0972000429368
-0.78122916961 0.643273340977 -0.169531621892 1.0632181237 -0.0435867454559 0.690604210004 -0.0929164609202 0.0695315339175 0.374911498839 -0.0926581184024 0.438471896243 0.664585483247 0.951912239439 0.6411239935 -0.82937073096 -0.113764471047 0.37805047283 0.256588858092 0.0769821060806 0.211949619186 -0.793699667579 -0.0516047977896 1.07175343694 -2.49245062436 -0.815356426793 -2.09006554629 0.165116384433 -0.0953424243344 1.13518235826 -1.3424549813 0.0227371557715
-0.940482322061 -0.741518245273 0.827781247645 -0.356025497485 0.0207439924294 0.0848848300705 -0.0613342216484 -0.836808769407 0.241694436612 0.0401700618697 0.0127078787749 0.275145054702 0.433584509975 -0.0303095470468 -0.947172503459 -0.0909503756897 1.38776893505 -0.75827954084 -0.304043030586 -0.708201149773 -0.0010414320499 -1.17440424167 -0.220975667941 -0.0413711888479 1.22934448684 -0.562988372345 0.30980018236 -0.0327600543897 -0.516005905184 0.0348828007594 -0.0781353350435
-1.61937997177 -1.33056162701 1.71718743312 -1.91051757373 -0.105875561809 -0.206882184478 -0.153392888684 -0.69746592434 -0.302079099371 -0.00260443639762 -0.878996768862 -0.154253839335 -0.0165422495583 -0.482193033921 -1.61042377471 -0.164503639236 2.61743367148 -1.00784482152 -0.72437100764 -0.906163219522 1.85178172685 -2.35325902339 -0.638380865219 3.74675210637 4.28447445326 2.79362852018 -0.399711954137 -0.0543478609534 -1.28468349573 2.72129141393 0.0982945704779
-0.926500022373 0.940153764616 -0.318122542117 1.2321086411 0.986869279886 0.295037738876 -0.103763274057 0.413294805101 -0.0982038014015 -0.106541579878 0.614211045266 0.778965971606 0.761760914788 0.888122625624 -0.451940461566 -0.091602638554 -0.0363425826401 0.662428339502 -0.0179123474049 0.0727880511127 -0.9514067899 -0.14218617932 0.801101673871 -2.06966252643 -1.09807897606 -1.97689644404 -0.151352930248 -0.0123193789367 0.857034964295 -1.28363757616 0.0149476774135
-0.578161232286 -0.331141508264 0.612436844041 -0.276988189732 0.510131028815 -0.54200903733 -0.0324729339974 0.0153991015323 0.450882685319 -0.0671625322483 -0.0086898034187 -0.0606805791508 0.364923850251 0.523639663605 -0.862563822358 -0.0579779824803 0.957978951315 -0.571257366222 -0.00186512375446 -0.158078789571 -0.135626939233 -1.2226453998 -0.61224825144 0.170056173002 0.405942318794 -0.0775796331741 -0.172227958226 -0.13349393856 -0.757197805368 -0.00199279993759 -0.0138781399998
-1.26300216471 -0.547446988369 1.80302327438 -1.96373160375 -0.0460876637877 -0.659498652277 -0.107268929812 -0.200102809904 0.365424716034 0.0749675178817 -0.800439282703 -0.580336241288 -0.0844147010033 0.476145793192 -1.84262421918 -0.161921499632 2.39782347974 -0.977491631731 -0.234197680268 -0.337036126267 1.66560934552 -2.35737424562 -1.28584169497 3.76639013101 3.31818163868 3.45084768842 -0.571645625972 -0.0763242864114 -1.69958944751 2.24273990551 -0.0257679676425
0.266485592 1.13962596788 -0.0499650953782 1.45696131481 1.6473012754 -0.203701618642 -0.10827704711 0.233153615609 -0.623198854885 -0.0481585571311 0.613230565124 0.236486244712 1.10004653422 1.35258822941 -0.0047346306682 -0.113684567802 -0.569948314475 1.03447323113 0.109240009254 0.335666538633 -0.999773937071 0.258332890571 0.464886373534 -1.91941344115 -1.477654341 -2.52187177349 -0.146396925459 -0.0355412465259 0.888087204284 -1.55758310118 -0.0849635993529
0.229770704214 0.0589280727959 0.824438839102 0.141198221696 1.10101311985 -0.994374213985 -0.0406902582639 -0.0414141275029 -0.142279325875 -0.0705184711217 0.154341092054 -0.751524248036 0.634426085675 0.933036195102 -0.220740262697 0.0156316079787 0.467957463191 -0.0386882508033 -0.0370619151321 -0.018231565771 -0.0737648478426 -0.893944429538 -1.01415398752 0.304812818596 0.0316035570989 0.0826926941184 0.119156762468 0.0134547457572 -0.655912774491 -0.296074335745 -0.0614561879568
0.0155941422394 -0.116111821268 2.04016038457 -1.71028252257 0.0795782392265 -1.63259231075 0.0263017333916 0.148083350953 0.864488332876 -0.0987533193328 -1.12135554113 -1.59398661392 0.131262653893 1.08047976764 -1.2311500964 -0.14968869818 2.07609836538 -0.82912333274 0.443631141729 0.341007794627 2.24395873469 -1.99656646164 -1.9636913842 4.40762767049 3.29374560648 4.34511374248 -0.319218136957 -0.0283595313231 -2.01158409902 2.00799581191 -0.0139586047929
-0.306590631548 0.389410308511 0.0413907430835 1.7738375294 1.42422829264 -0.457191930732 -0.107388952506 0.479220147393 -1.15386506005 -0.159497042933 1.08827270844 -0.0127384243851 0.861177890505 -0.841722267878 0.895056889852 0.0205106500878 -0.22135662453 0.725773993051 -0.920666270691 -0.229640192631 -1.02337134015 0.566892824483 1.02791982575 -2.74615698472 -1.3950787249 -3.09956843903 0.57798036456 -0.0279532471773 1.69889351942 -1.52685642454 0.0215877980819
-0.0230070414252 -0.643395448786 0.967172965645 0.160584425826 0.364514154212 -1.48617403693 0.00745654494522 0.0988676490145 0.131750128102 -0.170403161173 0.427942409921 -1.20406111413 0.559944882128 -0.521478267714 -0.109997921521 -0.0554792679295 0.836634278354 -0.0539912333024 -0.332548369407 0.356467139333 0.194164607811 -0.547959682484 -0.839623499813 -0.307625796156 0.336819623225 0.0561309637493 0.242292623462 0.0314622070666 0.252091976772 -0.763886035558 -0.0735696323193
0.458672925141 -0.156161220661 1.93660582436 -2.04107511904 -1.08329302859 -2.36935187488 0.13791775764 0.494328462351 2.11172136882 -0.0554837430844 -1.04127044019 -2.37489185493 -0.019553288647 0.765258071414 -1.45922747113 -0.0155269838134 2.50785145456 -1.03374072685 1.38746732378 1.64865672133 2.54700092086 -1.96048532985 -1.98606724687 4.23644169177 2.94289779338 5.31271026312 -0.682459904612 0.00132127828115 -1.27426135158 1.50403838497 -0.0268632480687
-0.466697025162 -0.619290712233 0.284136568625 1.76544996743 1.62664882933 -0.344683967869 -0.0243859146081 -0.138794228584 -1.90026595288 -0.188746495642 1.0782750278 0.173298820143 0.725947163765 -2.77930286114 1.87721621838 -0.0623652698673 0.109501826059 0.149587929621 -1.70965361626 -0.478855179002 -0.853594503818 -0.378482679514 1.5166507539 -3.16569047141 -0.807155379231 -3.2480699547 1.66721279673 0.0183727187667 1.24212642805 -0.289216013285 -0.055381577957
0.367120525952 -0.742398946009 1.31769745623 -0.313225720546 -0.313901773176 -1.50900211518 0.0892265991402 0.141114592036 1.01645365458 -0.0526643669193 0.145925147165 -1.42089074595 0.226847902656 -1.48661694098 -0.0504442905082 -0.0698436115775 1.44303579071 -0.952854972802 0.313199076749 1.32983793615 0.454667706421 -1.32254856332 -0.988924501108 -0.228863679461 0.386280158872 0.457173910733 0.162085214134 0.069764163682 -0.368078642175 -0.0634094676864 0.0481726974614
1.98161707812 0.613175809229 2.17315042051 -2.91997663472 -2.33435249138 -2.62516989809 0.199125133509 1.33891201938 4.83145828112 -0.157206014931 -1.56132626115 -3.1706871996 -0.772918988874 1.35583015102 -1.97712578837 0.0799178543768 2.52291074523 -2.17923837924 3.34801992549 4.45543792651 2.75204749301 -3.18760899404 -2.63737296665 4.77264680224 2.46461045931 6.78209476592 -1.95617595844 0.10322830834 -1.88861110109 1.24939845437 -0.0197192720296
0.0310643516732 -0.0583328526372 -0.0573344302234 0.0247367142437 0.00721716213879 -0.096758000706 0.0486613271299 -0.00145793464528 0.00762781999744 0.0581498280722 0.0643928443942 0.0314901195263 -0.0735785520749 0.0863130701906 0.0706670441767 -0.0664554577956 0.0766032557334 -0.000769170131813 -0.0317063009658 0.0558287955394 -0.0517469413053 0.0483486804634 -0.0360949229028 0.0618866845913 0.0163137746982 0.0602160212049 -0.0751754206506 0.0741652026176 0.0316094552611 0.0192696290678 -0.0396336298136
